0,76227 -0,90873 -0,51545 -0,35025 0,88463 -0,98578 -0,79945 0,54843 0,3866 0,35678 -0,80984 -0,55016 -0,03189 0,49201 -0,02402 0,69626 -0,75186 0,55111 0,2159 -0,67231 -0,09516 -0,3642 -0,09858 -0,25767 0,92419 0,03169 0,45351 -0,74953 0,62872 0,78315 -0,18027 0,0297 0,97843 -0,27056 -0,73528 0,58603 -0,90047 -0,54306 -0,77768 -0,50799 0,55854 -0,14188 0,43446 -0,6778 0,25096 -0,52357 -0,14203 -0,75025 0,73248 0,37592 0,53316 -0,37578 0,7635 0,0635 0,53216 0,12647 0,18984 0,74222 -0,27444 -0,14706 -0,43929 0,95007 0,91971 0,60345 -0,46295 0,16045 -0,52859 -0,76134 0,22728 0,38995 0,59673 0,79119 0,32879 -0,27611 -0,23086 -0,95329 0,20133 -0,42078 0,49136 0,44776 -0,82629 0,20376 -0,48201 -0,74721 -0,75001 -0,8045 0,2662 -0,08508 0,19728 0,13825 -0,60382 -0,64269 0,73138 0,36937 0,9313 0,60846 -0,06159 0,831 0,78514 -0,9095 -0,99498 -0,3807 0,02247 -0,65748 0,77919 0,74196 0,29543 0,0396 -0,70565 0,48545 0,92513 -0,38939 -0,74915 0,2778 -0,32078 0,35694 0,43207 0,66691 0,35346 -0,65845 0,89425 0,55648 0,04138 -0,91098 -0,00624 0,23941 -0,9402 0,95941 -0,20741 0,16068 0,10829 0,37032 -0,20592 0,40086 0,44273 0,55441 -0,81871 -0,82454 -0,5264 -0,49198 -0,09993 -0,7734 -0,37943 0,71182 0,21312 0,78556 -0,89354 -0,54642 -0,30986 -0,42565 -0,82362 0,2715 -0,52246 0,44359 -0,80375 -0,55147 0,57791 -0,06656 0,34875 -0,46022 0,68215 0,33601 -0,753 0,13367 -0,62285 -0,4452 0,81653 -0,15001 0,83506 0,12481 0,17565 0,25661 0,1933 -0,15457 0,44147 0,66765 -0,06409 0,32955 -0,1241 0,2082 0,13295 0,60622 0,26926 -0,78176 -0,01571 0,83679 -0,10723 0,35049 0,20461 -0,0058 0,97649 0,24784 -0,1733 0,93382 -0,17414 0,56406 0,97959 0,48689 0,33466 -0,34169 0,96902 0,25646 -0,38148 0,56533 0,39869 -0,08023 -0,92181 0,6321 -0,99789 -0,47141 0,51261 -0,75164 -0,94246 -0,85945 0,40683 -0,92407 -0,93326 -0,97124 -0,85062 -0,45964 0,66202 -0,53396 0,64538 -0,15915 0,14832 0,92781 -0,5701 0,25948 -0,98043 0,87741 0,68805 0,44901 0,99489 -0,78242 0,23917 0,87648 -0,01231 0,70393 -0,18046 -0,93549 0,75859 0,26067 0,34837 -0,32399 0,48158 0,72813 0,1903 -0,31385 -0,47301 -0,25008 0,49731 0,95083 0,33751 -0,2057 -0,00371 0,50298 0,61108 0,77766 -0,58299 0,47088 -0,51013 -0,1813 0,61253 -0,8753 -0,15946 -0,9364 -0,74654 0,83995 -0,09862 0,53034 0,08823 -0,6372 0,20921 -0,91514 -0,21824 -0,59865 0,11766 -0,03064 0,35926 0,42018 -0,26249 0,74375 -0,26751 0,26965 -0,61991 0,73722 -0,88851 0,20058 0,22129 0,73619 -0,73461 0,21003 0,28692 0,34866 0,57464 -0,06011 0,64813 0,22367 0,83547 0,41798 0,47466 0,35034 0,78477 -0,00336 0,66168 0,13451 -0,25838 0,25265 -0,98747 -0,40507 -0,61469 -0,35829 -0,58161 -0,00318 -0,26663 -0,25388 -0,9138 -0,65712 0,7446 0,10331 0,9521 0,05287 -0,38134 0,16519 0,26495 0,8782 0,07588 0,86054 -0,48979 0,84187 -0,24679 0,89399 0,13389 0,94128 0,94552 0,38716 0,95897 0,73585 0,60796 0,24558 -0,0044 -0,14116 0,18805 -0,37365 0,35087 0,62367 -0,20837 -0,70991 -0,38471 -0,17148 -0,14632 0,30525 0,47907 -0,26785 0,46588 -0,57822 -0,26833 -0,38042 0,73168 0,78347 -0,94138 -0,11893 -0,25757 -0,82934 0,84172 -0,50868 0,50782 -0,52289 0,0513 0,3462 -0,21286 -0,64965 -0,26509 -0,50098 -0,89229 0,09325 0,86482 0,9923 0,81431 0,64127 0,08657 -0,21422 0,24525 0,68169 -0,01182 0,44795 -0,58509 -0,59827 -0,5246 0,52373 -0,34451 0,33939 -0,99584 0,82448 0,18695 -0,88548 -0,8836 0,01739 -0,21537 -0,14046 -0,88415 -0,68549 0,23879 0,26908 -0,95862 -0,49667 -0,42966 -0,01996 -0,37556 -0,62738 -0,44304 -0,26064 -0,19474 -0,90959 -0,30311 0,27284 0,63581 0,06074 0,18247 -0,60624 -0,9236 0,10608 -0,9983 0,52757 -0,30929 0,44774 -0,65382 -0,08958 0,31207 0,99318 -0,02316 -0,15257 0,20766 -0,04524 0,52542 -0,22795 0,54699 0,97617 0,6403 -0,51515 -0,12239 0,43487 0,77729 -0,89722 -0,03323 0,91612 -0,46588 0,91375 0,12758 0,91411 -0,52129 0,05566 0,83491 -0,60913 -0,21687 0,00976 -0,6872 0,71121 -0,42163 -0,40637 -0,84286 0,65991 0,66797 -0,36875 0,39577 0,70952 0,53169 0,85049 -0,43502 0,92483 0,72584 0,65964 0,42043 -0,30239 0,51614 -0,35847 0,32879 0,89892 -0,43921 -0,22542 -0,08638 -0,56757 0,78283 0,39795 0,51447 0,92118 0,01251 -0,18321 -0,82837 -0,48434 -0,54075 0,83577 0,39779 0,04667 -0,67229 0,21769 0,76689 0,14603 -0,29299 0,25724 -0,61558 -0,31637 0,34876 0,20275 -0,81174 -0,18094 0,63523 0,13729 -0,12528 -0,8584 0,68097 -0,58612 0,15042 0,80379 0,68001 0,7247 0,87707 -0,72999 0,11678 0,47459 -0,30299 -0,2851 0,67886 -0,95068 0,46558 0,89006 -0,73815 -0,62625 -0,6301 -0,70156 -0,12536 -0,81725 0,19191 0,30355 -0,60985 -0,77002 0,08366 -0,41992 0,20969 -0,30459 -0,71406 0,87521 0,94206 -0,96998 -0,16531 -0,95464 -0,31465 0,594 0,36666 -0,397 0,34062 0,49687 -0,97075 0,23241 -0,43977 0,66952 0,00476 0,29944 0,73716 -0,70181 -0,44279 0,26147 -0,23261 -0,42372 0,26695 0,49821 0,22196 0,84686 0,41363 0,45002 -0,35896 0,29699 0,06032 -0,57864 0,18864 -0,17821 -0,22717 0,64883 0,21462 0,42021 0,20471 -0,33216 0,00709 0,7669 -0,04218 0,37777 -0,84651 0,95949 -0,25668 -0,27937 0,22522 0,78421 -0,15708 -0,08851 -0,8618 0,02447 0,10782 0,36578 -0,23693 0,33647 -0,1766 -0,16152 -0,81964 0,91663 0,96195 -0,95637 -0,56345 0,60789 -0,95623 0,73844 -0,10332 0,35592 -0,91519 -0,68306 0,09348 0,88936 -0,74562 0,00048 0,61845 0,88918 0,34472 0,26247 0,10354 -0,307 -0,7752 -0,14318 -0,54594 -0,85118 -0,71684 -0,83584 0,71396 0,40705 -0,11424 0,87815 -0,40319 -0,63378 -0,51252 0,09045 0,80494 -0,08581 -0,05879 -0,4544 0,91571 0,00487 0,82394 0,86929 0,69939 -0,47402 0,81801 -0,75116 -0,22991 -0,89267 0,74732 -0,12612 0,99174 0,56093 0,73494 0,48736 0,69183 0,10513 0,58956 -0,71228 0,32472 0,8796 -0,97553 0,48963 -0,52985 -0,79334 0,72012 -0,27275 0,40187 0,16392 0,19554 -0,29574 -0,05204 -0,20088 0,34675 -0,90134 -0,13095 -0,6445 0,15742 0,92808 -0,6692 -0,96568 0,39407 0,60662 0,65972 -0,98812 0,8864 0,03588 -0,36872 0,00011 0,39862 -0,30019 0,32462 -0,34652 0,22087 -0,96389 -0,0196 -0,66569 0,39913 0,49273 -0,19415 0,09076 -0,15304 0,60616 -0,08821 0,04306 0,92591 0,19262 -0,78583 0,63627 -0,3817 0,33633 0,9477 0,66147 0,95692 0,2904 -0,51448 -0,58216 0,8299 -0,54173 -0,67975 -0,31576 -0,90403 -0,59825 0,7653 -0,50428 0,37963 -0,70552 0,57824 0,31064 0,11826 -0,46526 -0,04364 0,66469 0,12222 0,24004 0,18736 0,78791 -0,30517 -0,38335 -0,91404 -0,30622 -0,1783 -0,005 -0,61819 -0,93772 -0,24789 0,66314 -0,30344 0,93047 0,55058 -0,43745 -0,4956 -0,05914 0,17248 -0,87839 -0,00522 -0,5548 0,84086 -0,58393 0,66343 0,63143 0,61437 -0,09647 -0,48199 -0,91645 -0,62003 -0,71699 -0,46076 -0,28312 -0,89697 -0,30239 0,72301 0,21325 -0,62769 0,62646 0,86253 0,10097 -0,98006 0,70301 0,74361 0,71648 0,59791 0,64776 0,76005 -0,4443 -0,96966 -0,9845 -0,5078 0,00061 -0,75475 -0,25785 0,94704 -0,72124 -0,04678 -0,54548 0,0794 0,91816 -0,52301 -0,70174 0,68231 -0,5309 0,1239 0,97968 0,82743 -0,14704 -0,16046 0,29115 -0,43146 0,54601 -0,74092 0,89381 -0,57474 -0,86215 -0,32755 0,94695 -0,96649 0,96661 0,14347 0,9623 -0,94679 -0,63554 0,7908 0,53863 -0,52838 0,36087 -0,24943 0,44425 -0,73997 0,91778 -0,45294 0,94436 -0,37603 0,72168 -0,97931 0,27451 -0,40742 0,61823 0,82032 -0,09291 0,71616 -0,26081 0,44695 -0,05381 -0,25847 -0,64856 -0,68311 0,80919 0,6063 0,00626 -0,579 0,11279 -0,22532 -0,48532 -0,75495 0,31784 -0,3217 0,58526 0,50805 -0,53344 -0,89761 0,39528 0,03112 -0,34924 -0,00106 -0,68529 0,26983 -0,29643 -0,88285 0,39794 0,35437 -0,58472 -0,85372 -0,76362 -0,75386 0,31401 -0,08249 -0,1554 -0,2029 -0,87983 0,04397 -0,05863 0,83795 0,25376 0,49677 0,43426 0,16968 -0,89071 0,47663 -0,29715 -0,40379 0,00731 -0,88983 0,35376 -0,19531 -0,67913 0,70807 -0,20382 0,94724 -0,57318 0,0816 0,61332 0,69204 -0,79165 0,65189 -0,99428 -0,03349 -0,4617 -0,73146 -0,06897 -0,59967 0,83369 -0,21184 0,38787 0,42258 0,16101 0,55733 0,77735 0,15399 0,56467 0,14503 0,16054 0,22694 0,4143 -0,19827 -0,65295 -0,6949 -0,20749 0,43168 0,92526 0,60594 -0,87868 -0,10265 -0,62972 0,03857 0,43065 0,24933 0,6296 0,60187 0,49105 -0,53225 -0,36863 0,84075 -0,45441 -0,69748 -0,23749 -0,78085 -0,27771 0,93118 0,64368 -0,23646 0,93071 0,64219 -0,61744 0,28178 0,92106 -0,61363 -0,72226 0,40661 0,30483 0,70061 -0,82601 0,10661 -0,65673 0,32508 -0,721 -0,06367 -0,58212 -0,6507 0,99192 0,91168 0,92773 -0,82452 0,66293 0,09692 -0,48635 0,31979 -0,31866 0,11178 -0,96078 -0,87211 0,58281 -0,13867 0,788 0,16172 0,67523 -0,52087 -0,48522 0,08849 0,1175 0,04428 -0,02841 -0,77702 -0,70297 0,79043 -0,70624 0,52476 0,49747 0,22051 -0,97649 0,82617 0,80127 -0,62702 0,93925 0,73199 -0,16419 0,75523 0,97925 0,28564 -0,23187 -0,39873 0,70502 0,16596 0,36739 0,17693 -0,88221 0,31266 0,31861 0,18155 0,64985 0,79986 -0,57845 0,32938 0,2318 -0,05237 -0,05991 0,70474 0,87845 0,87249 -0,19685 -0,01112 0,82231 0,46083 0,08826 -0,78696 -0,67338 0,20982 -0,07793 -0,944 -0,6741 0,92 -0,50013 0,22913 -0,67965 -0,48377 0,33926 0,80563 -0,14441 0,12009 0,67263 -0,0189 -0,79385 -0,68409 0,57066 -0,77635 0,40462 -0,52812 0,14118 -0,00838 -0,2081 0,13106 0,87677 -0,89325 -0,51751 0,77924 -0,22105 -0,75582 -0,92231 0,15434 -0,14969 -0,09203 -0,60942 0,2626 -0,14435 0,72984 0,29999 0,19241 0,00903 -0,28444 0,60837 0,13445 -0,15085 -0,24164 -0,80014 0,82205 -0,21727 0,5064 0,89016 -0,13539 -0,19159 0,85473 -0,93136 0,93045 0,2641 0,19483 -0,95678 -0,60689 -0,25336 -0,45889 0,73728 0,09507 0,72793 0,70124 -0,73023 -0,23534 -0,40949 -0,05646 0,46026 0,84081 -0,07635 -0,78779 0,46285 -0,57439 0,38324 0,65744 -0,71809 0,11841 0,90689 -0,33957 -0,00349 0,27254 -0,64598 0,21308 -0,65408 -0,00443 -0,16067 -0,53987 0,9985 0,66081 0,68662 -0,09312 -0,55424 -0,53209 -0,02172 -0,48671 0,40652 0,14791 -0,51142 0,43519 0,23154 0,83918 -0,95386 -0,95066 0,94095 -0,4038 -0,60812 0,64302 -0,4528 0,60665 -0,08708 -0,07519 -0,51379 -0,9138 0,54459 -0,53527 -0,25895 -0,48516 0,35531 0,2742 0,92533 -0,86963 -0,05496 0,79945 -0,84581 -0,98323 0,76645 -0,00507 0,44732 -0,13005 -0,74908 0,134 -0,37018 -0,5283 0,42889 0,15732 0,2264 -0,69533 0,27213 0,74972 -0,39631 0,1963 0,91293 -0,60815 -0,25212 -0,2382 -0,57934 -0,64045 -0,07668 -0,48645 0,77224 -0,10832 0,79259 0,21438 0,50985 0,10116 -0,10586 -0,75332 0,89514 0,92418 -0,17025 0,39694 -0,80431 0,67725 0,35573 0,77892 -0,70502 -0,9855 -0,34269 -0,61273 0,23832 -0,56363 0,24271 0,60559 -0,3295 -0,27098 -0,78256 -0,44681 0,05156 0,39238 0,5961 0,40689 -0,92839 -0,06624 0,0977 0,35923 0,3414 0,41544 -0,03816 -0,67228 -0,73682 -0,02029 -0,59048 0,34795 -0,08003 0,20674 0,0006 -0,76432 0,03611 -0,03105 -0,53318 -0,59385 0,70224 -0,46396 0,27523 0,33586 0,64896 -0,813 -0,45613 -0,21917 -0,11628 -0,65905 0,19511 -0,49724 -0,67193 0,42285 0,32532 0,26192 -0,42046 0,99649 -0,56248 -0,12047 0,05266 -0,67042 -0,87591 -0,7414 -0,97315 0,89476 -0,31439 0,46376 0,72842 0,98175 0,51707 -0,91739 -0,07444 0,18995 0,70465 0,53556 0,65853 0,76184 0,71027 0,1544 -0,12843 -0,81899 0,444 0,92222 0,78459 0,90676 0,01987 0,49711 0,88141 0,73867 0,65613 0,03962 -0,46857 0,58728 0,35349 0,37265 -0,58805 0,01662 0,30901 0,7542 0,50138 0,0801 0,0524 -0,09804 -0,17613 0,1125 0,57719 0,13812 0,7182 0,78975 0,60338 -0,1823 -0,71378 0,28312 -0,99204 -0,12836 -0,11442 -0,79814 -0,526 -0,87992 -0,12512 0,1885 0,58234 0,98974 -0,67438 -0,52255 0,55117 0,33827 0,83645 -0,66801 0,12361 -0,35809 -0,54717 0,95606 0,65301 0,79146 0,1286 -0,45797 0,09835 -0,32791 -0,67044 0,88175 0,77891 -0,90835 -0,86472 -0,16157 -0,2466 0,24831 0,57932 -0,51816 -0,51293 -0,78992 -0,45739 0,18892 -0,12068 -0,68712 0,49776 0,06266 -0,42366 -0,65359 0,56133 -0,76108 0,30166 0,3862 -0,33386 -0,03853 -0,63513 -0,66985 0,6301 -0,78351 0,74304 -0,65645 0,1035 0,80191 0,79052 -0,00687 0,40959 0,49068 0,85445 0,48718 0,72405 -0,69715 0,75894 0,35461 0,84491 -0,08647 -0,9007 0,2639 0,07674 0,34013 -0,70631 -0,93406 0,96568 -0,24807 0,11076 -0,90936 -0,41992 -0,6073 0,42551 0,17381 -0,52644 -0,57676 0,61821 0,36283 -0,26121 -0,85648 0,10657 -0,2593 0,3984 0,88619 -0,09672 -0,99292 0,2082 0,08915 -0,37764 0,25847 -0,52003 0,94704 0,54129 0,7526 -0,13783 0,10096 0,25341 -0,71003 0,92279 0,67709 -0,62214 -0,64843 -0,30885 0,69988 -0,58696 0,01688 -0,93484 -0,31936 0,01362 0,30081 -0,31536 -0,60389 -0,38419 0,70139 0,80695 0,3586 0,8655 0,19055 -0,56316 -0,71339 -0,14226 -0,12348 -0,87044 0,85229 0,61066 -0,36697 -0,14859 0,67291 -0,68836 0,37259 0,16982 0,32823 0,44003 0,06169 0,76565 -0,245 -0,95046 0,69851 0,47314 0,8864 0,94191 -0,47245 -0,92447 0,32155 -0,42618 -0,91614 0,33123 0,83989 0,94565 0,50357 0,23546 -0,93714 0,85312 0,63617 -0,18065 0,50133 -0,778 -0,16115 -0,91078 0,78 -0,83453 -0,60775 -0,631 0,64102 -0,86902 0,35641 -0,04393 0,55411 0,93573 0,05195 0,30905 -0,83302 0,7174 -0,44956 -0,6553 -0,66982 -0,19901 -0,19199 0,27847 0,52679 0,3018 0,01151 0,72725 -0,19193 -0,86287 0,10695 0,4751 0,80386 -0,75766 -0,73568 -0,467 0,21069 0,60929 0,69314 0,72092 0,54966 -0,84145 -0,56549 0,19056 0,21741 0,12779 0,77711 0,90416 -0,1063 -0,80549 0,06847 -0,65455 0,30268 0,29147 -0,51083 -0,29966 0,41398 0,56038 -0,43758 -0,52181 0,15396 -0,33501 0,56093 0,50388 0,02402 0,8813 0,15221 0,31177 0,67141 -0,48106 -0,90165 -0,44232 -0,97574 -0,17048 -0,20496 -0,82838 -0,63352 0,61744 -0,93894 -0,601 0,52469 0,10735 -0,16645 -0,38645 0,06865 -0,23851 -0,82758 -0,48762 0,75316 0,56397 0,11901 0,6503 0,04687 0,21494 -0,43305 -0,11534 -0,40238 -0,06938 -0,83347 0,3361 0,97557 -0,53467 -0,76726 -0,62525 -0,90385 -0,48921 -0,67881 -0,52684 -0,50357 -0,68245 -0,66614 0,79653 0,49932 -0,83658 -0,0465 -0,95339 0,83143 -0,05263 -0,56478 -0,73748 0,70887 -0,36018 0,55861 -0,89256 0,39993 -0,55195 0,51081 -0,19069 -0,73744 0,91037 0,574 0,43585 0,4509 -0,27505 -0,57658 0,05935 -0,1254 -0,5412 -0,48261 -0,44214 -0,5597 0,69925 -0,98405 0,43561 0,23011 0,32247 -0,84903 -0,11656 -0,73856 -0,47966 0,05322 0,65024 -0,50461 0,90401 0,62722 0,33575 -0,09328 -0,8747 -0,02519 0,6481 -2E-05 0,51188 -0,78941 -0,41395 -0,25645 -0,102 -0,65438 -0,22563 0,74 0,89415 0,172 0,37263 -0,57002 0,87736 0,82222 -0,99038 -0,37613 -0,877 -0,12268 -0,92254 -0,70293 -0,37264 -0,45213 0,74222 -0,14285 0,92375 -0,05955 0,54689 0,09772 0,08767 -0,84737 -0,2507 0,48399 -0,13072 0,55788 -0,07158 0,48865 0,42989 -0,30794 -0,6679 -0,02316 0,3766 0,14344 -0,63272 0,34833 0,68059 0,22026 -0,38197 -0,91822 0,6176 -0,28813 -0,21628 0,24797 -0,10265 0,35103 -0,62739 -0,036 -0,53163 0,7289 -0,18021 0,95755 -0,20127 0,67665 -0,34767 0,74152 -0,5773 0,88864 0,56069 -0,68053 -0,1062 -0,47904 0,19397 0,43094 -0,45478 0,10061 -0,07954 0,48392 -0,81942 -0,60611 0,17655 -0,29652 -0,67758 0,4651 0,48011 -0,62421 0,3689 0,50132 -0,41337 0,51825 0,18526 0,96441 0,02028 0,70099 0,87226 -0,62545 -0,82189 0,69995 -0,50889 -0,37424 -0,07438 0,79195 0,65957 -0,70145 0,18798 0,09663 0,5179 0,35278 -0,29726 0,79673 -0,56944 -0,11131 -0,21659 -0,92553 -0,44766 -0,88369 0,63512 0,33362 -0,80347 -0,72346 -0,62739 -0,07863 0,302 -0,95757 0,1342 -0,07062 0,50068 0,49297 0,55867 -0,82933 -0,0775 0,22051 -0,00719 0,55481 0,46826 0,3846 0,04391 -0,97614 -0,72288 -0,61653 -0,14212 -0,98388 -0,20142 -0,21011 0,08769 -0,70343 0,181 -0,0542 0,14865 0,75594 -0,26058 -0,15552 0,50341 -0,78543 -0,74685 -0,99575 -0,51006 0,61714 0,16434 -0,74141 0,59595 -0,97508 0,7941 -0,46793 -0,12577 0,21004 0,89588 0,22859 -0,39379 0,16773 0,0724 0,61126 0,05649 0,81305 0,41865 -0,64352 -0,87721 -0,4879 -0,04527 -0,16237 0,74838 -0,44513 -0,65568 0,80272 0,43125 -0,92199 0,71709 -0,22176 0,30166 0,46401 -0,10535 0,42677 -0,14049 -0,98148 -0,21249 -0,16705 -0,77798 -0,73349 0,91566 0,87765 -0,59931 0,9524 -0,66041 0,98091 -0,31646 0,12815 0,78799 0,69036 -0,20409 0,89667 0,88145 0,97784 -0,3376 -0,67329 -0,48979 0,04108 0,6806 0,99137 0,10081 -0,20378 0,49294 0,11763 0,92693 0,14219 -0,72692 0,64563 -0,24826 0,03797 0,02553 -0,41431 -0,86555 0,85628 -0,40356 0,07708 -0,56307 0,79597 -0,78473 -0,6366 0,11918 -0,69691 -0,70998 -0,97327 0,98232 0,40499 0,58255 -0,08319 -0,23564 -0,4672 0,5083 0,74643 0,15235 -0,76935 0,16569 0,11944 -0,6153 0,28305 -0,97453 0,19739 0,70783 0,03791 -0,62359 -0,24998 -0,33518 -0,78978 0,76221 -0,97483 0,3814 0,58531 0,88977 -0,28576 -0,1742 0,31719 -0,12782 -0,20228 -0,49381 0,46621 0,13531 -0,47806 0,55963 0,35626 -0,11874 -0,78107 0,52966 0,2791 0,43334 0,9038 -0,30941 0,47699 -0,30762 0,15387 0,7705 0,01787 -0,34443 -0,91874 0,92667 0,54 0,3619 0,7721 0,64277 0,55738 0,53541 0,17904 -0,35697 -0,20594 -0,07938 0,83515 0,35846 -0,63204 -0,38676 -0,08152 -0,85226 0,50352 0,63776 -0,64844 -0,84336 -0,84253 0,22035 0,38572 -0,22313 0,8584 0,33457 0,9044 -0,10707 -0,26411 -0,05627 0,80792 -0,33838 -0,20909 -0,12896 -0,03381 -0,89569 0,36321 -0,12084 -0,99776 0,82085 0,70221 0,5759 -0,26441 -0,64153 0,59818 -0,45466 -0,67738 -0,13625 0,77389 0,00613 -0,73303 0,38011 -0,69599 0,92462 0,7692 -0,68036 0,97618 -0,00478 0,78437 -0,7772 0,631 -0,71389 0,90713 0,85033 0,11269 0,17353 -0,43246 0,49691 0,64704 -0,18583 -0,21547 -0,37564 0,63551 -0,4693 -0,54557 -0,41844 -0,51524 0,02724 0,17869 0,31306 0,01195 0,04064 0,11903 0,72976 -0,32325 -0,57219 -0,6424 -0,13371 0,10184 -0,35345 -0,87188 -0,63202 0,09479 0,77944 -0,81015 0,41609 0,66877 -0,11474 0,24577 -0,57535 0,97779 -0,1743 0,2167 -0,04028 -0,77841 0,64261 0,7446 0,7733 0,47018 0,18763 0,83487 -0,05106 0,81653 -0,5287 0,21085 -0,40965 0,16707 -0,82263 0,17357 -0,31512 -0,18408 0,70124 -0,60493 0,00049 -0,31396 -0,58346 0,52956 0,85607 -0,65915 0,03833 -0,08721 0,5995 0,78146 -0,24597 0,33526 -0,81376 0,82394 -0,84069 0,50816 0,03413 -0,3168 -0,41571 0,39611 0,91421 -0,18833 0,17918 -0,44855 -0,37652 -0,43142 0,59949 -0,75099 0,49139 0,71168 -0,43911 0,60872 -0,72345 -0,56937 -0,7838 -0,72633 0,80505 -0,88695 0,88852 0,43245 -0,56815 -0,72517 -0,76463 0,16747 0,06249 0,13604 0,02461 -0,23359 0,00776 -0,33079 -0,86057 -0,99833 -0,76837 -0,69487 -0,51915 -0,81119 0,50686 0,86509 -0,09392 0,28748 -0,25865 -0,21069 0,42139 0,88782 0,22057 0,1453 0,0587 0,7556 0,60773 0,88563 0,7031 -0,07892 -0,20532 0,15183 -0,03574 0,63937 -0,4237 -0,9883 0,48896 0,48743 0,54397 -0,16692 0,24125 -0,17782 0,57224 -0,44079 0,37709 0,97142 0,94978 -0,97262 -0,2332 0,93996 0,20696 -0,39897 -0,30891 0,64253 -0,14657 -0,65246 0,9469 0,91718 -0,92267 0,269 0,15867 0,12213 -0,0339 0,21834 0,20699 0,07979 0,34087 -0,15852 0,61251 0,49516 -0,62387 0,41864 0,74351 0,90827 0,54806 -0,40079 -0,68443 -0,33864 0,76821 0,08728 0,80582 0,58034 0,11883 0,76314 0,71411 -0,80636 -0,53926 0,32172 -0,21407 -0,77125 -0,93521 0,57177 0,41009 -0,72504 0,6744 -0,88088 0,85607 -0,6461 0,35221 -0,7027 -0,36946 0,1083 -0,58513 0,27163 0,56382 0,78832 -0,14248 -0,21718 -0,90553 -0,74578 -0,96803 0,28554 -0,85103 -0,00995 0,46318 0,57833 -0,99671 0,20295 0,50422 0,01335 -0,38095 -0,98086 -0,94446 0,38375 0,43037 -0,19565 -0,99146 0,46854 -0,76613 0,42894 -0,25686 0,96166 0,30914 0,4709 -0,54327 -0,30249 0,16547 0,84719 -0,80069 0,92579 0,33611 0,67791 0,22725 -0,46829 -0,80323 -0,22076 0,42279 -0,57996 -0,18823 -0,90394 -0,88418 -0,34689 -0,15033 -0,66114 0,67825 -0,3886 0,05275 0,03111 0,84126 -0,24053 0,77977 0,38897 -0,45106 -0,33448 0,51108 -0,92969 0,97639 -0,32194 -0,46669 -0,23434 -0,58714 -0,8439 0,00364 0,57843 0,67723 -0,05887 -0,20811 0,52383 0,18698 -0,34888 0,38155 0,5885 -0,34323 -0,8622 0,31312 -0,90998 0,11199 -0,02972 0,79265 0,84533 0,64476 -0,86565 -0,99408 0,43984 -0,85398 0,94714 0,12897 -0,43828 0,02063 -0,87354 -0,19716 -0,25527 0,88672 -0,9539 0,6832 0,95971 0,64947 0,27124 -0,33838 -0,26288 0,81951 0,52892 0,84413 0,19014 0,37791 -0,80874 -0,2678 -0,58887 0,3524 0,42105 -0,04168 0,00611 -0,11459 -0,31202 0,1209 -0,7215 -0,84982 0,56379 0,43241 0,73009 0,81215 -0,76984 -0,49681 0,06051 0,84827 -0,36318 0,70178 -0,38934 -0,5454 0,3534 -0,55946 0,84074 -0,69135 0,05553 -0,97419 -0,88417 -0,70978 -0,18423 -0,93807 0,95475 0,21493 -0,28217 0,20932 0,59957 0,16814 0,79673 0,85932 0,19873 -0,07481 0,40469 0,80952 -0,91433 0,83883 -0,06847 -0,07504 0,58935 0,02572 -0,21639 0,34187 -0,25892 -0,51052 -0,87847 0,95652 0,99899 -0,01949 0,11757 -0,30255 0,82987 -0,33784 0,00507 0,98828 0,3344 0,50186 0,47766 -0,48485 0,09431 0,02083 -0,09638 0,89237 -0,94847 -0,2225 -0,49696 0,68546 0,04991 0,54388 -0,64514 -0,99809 0,37711 -0,86943 -0,56354 0,0901 0,5066 0,4739 0,32084 0,46526 0,0934 -0,2387 0,21032 -0,38094 -0,94943 0,09927 -0,97056 -0,46344 0,92012 0,4164 -0,52488 -0,41619 -0,63883 -0,58362 0,83064 -0,43149 -0,87791 -0,10876 0,29033 0,96358 0,98644 -0,56393 -0,09339 -0,54489 -0,37436 0,11566 0,32034 0,6993 -0,7743 0,91496 -0,51832 0,86049 -0,81899 -0,98761 0,42175 -0,667 0,81051 -0,71544 0,8418 -0,04774 -0,25195 0,96647 0,76534 0,6335 0,06876 0,77105 0,64073 -0,03927 -0,70008 0,86795 -0,032 -0,38465 -0,81643 0,35725 0,47881 -0,34268 0,85469 -0,24479 0,99341 -0,0651 0,77893 -0,66986 -0,68914 -0,99485 -0,06529 -0,38538 -0,59721 -0,65123 -0,00537 0,49763 -0,242 0,83753 0,04944 -0,66194 0,21553 -0,98003 -0,32928 0,27311 0,38635 -0,14541 0,47492 -0,6404 0,39937 -0,64226 -0,05304 0,86632 0,67691 -0,17624 -0,46642 -0,23558 -0,52169 0,05529 -0,70886 -0,09311 0,17333 -0,58209 0,6556 0,76019 -0,30122 -0,54587 0,36825 0,29196 0,9661 -0,19771 0,10995 0,13047 0,56591 0,84551 -0,85828 0,45884 0,9866 -0,41843 0,36886 0,13882 0,45997 0,41933 -0,06924 0,95312 0,05819 0,06839 -0,0623 0,57903 0,81519 -0,7698 0,01931 0,7027 0,54638 -0,85746 0,16473 -0,20238 -0,63564 -0,08947 -0,42568 -0,06779 0,48633 -0,81704 -0,60651 -0,40293 0,24779 0,81648 -0,69959 0,8314 -0,31796 0,07474 -0,22219 0,89674 0,68643 0,15232 0,44691 0,754 0,48714 0,70248 -0,298 0,63039 0,51643 0,78922 0,47676 0,73589 0,78298 0,40725 0,58409 0,42336 -0,31922 0,3441 0,09447 0,07607 -0,99275 -0,56335 0,65248 0,27701 0,02583 -0,66631 -0,29467 0,2417 -0,23203 0,10629 -0,10302 -0,25955 0,45238 0,12257 -0,98373 -0,60595 -0,30437 0,41072 0,31047 -0,33812 -0,79147 -0,05607 0,41578 0,69711 -0,29381 -0,34241 -0,18591 0,84054 -0,76762 -0,12296 0,15062 0,33794 0,98026 0,70174 0,88948 0,24978 0,49983 -0,8301 -0,27184 0,15345 -0,00285 0,46029 -0,13759 -0,58987 -0,10777 -0,26369 -0,71649 -0,3396 0,39097 0,19003 -0,27227 0,27005 -0,96638 -0,56742 -0,13246 0,06331 0,02086 0,95537 -0,42919 -0,63177 0,51959 -0,13522 0,00931 0,89093 0,95567 0,55904 -0,23982 0,75064 0,23308 -0,23352 -0,10578 -0,47428 -0,31744 -0,84298 0,66473 -0,25177 -0,91849 0,00564 -0,19512 0,96987 -0,62592 -0,84632 -0,55044 0,04235 -0,8507 0,88057 0,30431 0,54767 -0,1658 -0,17383 -0,77109 0,54446 0,59908 -0,64007 0,63385 -0,86764 -0,54903 -0,02852 -0,54555 0,33318 0,97613 -0,46714 0,42732 -0,37552 -0,70419 -0,798 -0,41251 0,8766 -0,23215 -0,8807 -0,0182 -0,98478 0,15049 -0,39907 0,99415 0,3659 -0,58478 0,96696 0,74162 -0,9249 -0,74527 0,2125 -0,08357 -0,59309 -0,46243 0,34976 -0,07336 -0,67737 -0,47684 0,53237 -0,70275 0,11003 -0,44882 0,47169 0,99374 0,84121 -0,27364 0,82507 -0,25347 0,94729 0,29308 0,4277 -0,22018 -0,28511 0,84436 -0,78631 -0,60604 -0,00186 -0,63423 -0,73205 0,71713 -0,51599 0,22985 -0,62065 0,07844 -0,23638 0,61642 0,02041 -0,91309 -0,05395 0,27536 -0,73515 0,35344 0,23548 0,82205 0,87176 0,46403 0,67879 -0,39281 -0,84707 -0,36046 -0,40985 0,22042 0,79433 -0,21798 -0,17298 -0,56732 -0,79846 -0,43746 -0,67612 -0,04421 0,9285 0,95685 -0,74479 0,81523 0,81324 0,88018 -0,82817 -0,60675 0,23012 -0,77522 0,70594 0,73816 0,80048 -0,32807 0,02822 -0,92574 0,54434 -0,10716 0,97259 -0,25035 -0,28483 -0,60905 -0,78716 0,6284 0,12698 0,26358 0,43552 0,59732 -0,74858 -0,66907 0,41488 -0,54214 0,76302 0,99026 0,34685 -0,692 0,09823 0,42024 -0,9912 0,99158 0,29219 0,28554 0,37706 0,92814 -0,06641 -0,14801 0,41994 0,12239 0,7538 -0,24724 -0,11166 0,30869 -0,41006 0,57422 -0,75939 0,53755 0,744 -0,3732 -0,31176 -0,45034 -0,55534 -0,42549 -0,85817 -0,10082 -0,1901 0,24808 0,97513 0,81022 0,32508 -0,27979 -0,02397 -0,87591 -0,11597 0,98101 0,45746 0,42963 0,01388 -0,7153 -0,3052 -0,72501 0,84363 -0,68688 0,84352 0,49865 0,44259 -0,89382 0,86791 -0,81121 0,74964 0,8093 -0,436 -0,52858 -0,26801 0,45914 0,54692 -0,28232 0,1437 -0,52212 0,11824 0,68551 -0,12315 0,60972 0,79731 0,03359 0,77672 -0,23576 -0,57534 -0,39107 -0,88324 -0,18903 -0,47634 0,4593 0,932 -0,58675 -0,29398 -0,86847 -0,26902 -0,35683 0,45658 -0,29629 0,38016 0,78633 -0,93943 0,51577 -0,8438 -0,4954 0,39209 0,42489 -0,56592 -0,26023 -0,71408 -0,464 0,16646 0,00928 0,39813 -0,76609 -0,48419 -0,19008 0,72193 -0,32165 0,68152 0,25897 -0,92797 -0,06133 0,28564 0,1047 -0,46058 -0,68126 -0,24688 0,41539 0,98669 -0,49947 0,02129 -0,58548 -0,69466 0,09052 0,54915 -0,71847 -0,12262 0,27212 0,37215 -0,00024 -0,82515 0,37698 -0,47496 0,98765 -0,70717 -0,07729 0,01512 -0,52789 0,61571 0,92106 -0,07877 -0,22177 0,02218 -0,87881 0,71429 0,1219 -0,76987 0,0515 0,96518 0,07334 -0,32823 0,01869 -0,24692 0,78538 0,51471 -0,24807 -0,29606 -0,6924 -0,31525 -0,76573 0,93253 -0,55019 0,30619 -0,31825 0,08412 -0,30495 -0,58638 0,29798 -0,18814 0,6167 0,30362 -0,719 0,79967 -0,93437 0,57929 -0,75695 0,39233 -0,81585 0,37622 -0,57275 -0,9486 0,82588 0,30693 -0,7012 -0,67201 0,15615 -0,37611 -0,26035 -0,52706 0,5409 -0,78124 -0,29249 0,78735 0,38144 0,98852 -0,52858 0,47204 -0,65958 0,03706 0,01924 -0,29173 -0,06786 -0,76037 -0,65153 0,76972 -0,60924 0,21902 -0,31255 -0,79392 0,27165 0,35959 -0,48021 -0,06863 -0,738514210034095 -0,812581598383591 -0,900921756573993 0,147385555325654 0,00790171379800026 -0,644451081754834 0,927963265776879 -0,933088972386746 0,672905862599792 -0,16588117530002 0,270958876396381 0,39476759577644 -0,399533046457087 -0,506348241328686 -0,58303223829264 -0,922813233138238 0,109287749676456 -0,226749258336717 0,0519356165062576 0,146697248517145 -0,650702018487806 0,71166844446525 0,118061422995382 0,581419642901113 -0,0446962326302342 -0,475644616264961 0,942122124152504 0,935584144775426 0,936546517909588 -0,464603327853313 0,200843806173827 -0,817517619218036 0,694901024273139 0,776960265841378 0,516861296142663 0,19631596299799 0,877428550805448 0,328520635725723 -0,536752700918097 0,986152478442723 0,110248698512918 -0,0546463545460182 0,0415087409733684 -0,892295816692282 -0,0385784523211378 -0,0489014923203462 0,17346794561864 0,898588798463662 -0,200758986072181 -0,388616210730614 0,0993063247149244 -0,500896138567436 -0,682500514592137 0,372674950531335 -0,427379593496591 -0,474553416613761 0,0672614141436844 -0,475257342972173 -0,814483514415878 -0,520211558937662 -0,575627795946026 0,990735943242403 -0,859919289542509 0,144423231831844 0,617932561375017 0,0887492054227427 0,706656243511554 -0,180041716191866 -0,0366907086316658 0,219685355309926 -0,795460825395053 0,777743194455393 -0,697336336742963 0,0652399400659168 -0,962069794423562 0,405459430574206 -0,316531107662869 0,0127806375109237 -0,385917882779574 -0,992210144582372 0,349616333195501 -0,959986910362819 0,144833253670533 0,32617369930731 0,434680359609454 -0,297155947645758 0,868825025237294 -0,675245029494184 0,200987406338486 -0,0134701388678402 -0,865030054038759 0,362944945369934 0,148315390876855 0,985831740551494 0,570282491396633 0,130313417099517 -0,186609974122045 0,893431064118152 -0,50456203970292 0,879018843777427 0,251306873930234 -0,639790347026572 -0,0683661730428354 0,577345595327481 -0,582364240426184 0,318920506266992 -0,806520715349248 0,237740464505009 0,336529586070207 0,161778191880049 0,853671692184471 -0,940735025866297 0,900686659570061 -0,823487418115604 0,12227017763685 -0,611255949064062 -0,144545837669617 -0,191400120149765 0,709807517281433 -0,0775959057186802 0,216085532490408 0,372341617571866 0,618358656254924 0,961676241732737 0,08467731576904 -0,1687384746171 -0,351066718600355 -0,682949695718752 0,496175064992416 -0,0834834704010044 -0,404184217931372 -0,208904955203673 -0,471485293369116 -0,266439460641425 -0,245295296114236 0,0015444211578819 0,10613743377711 0,554917201802274 -0,0900450442163026 -0,883574782013349 -0,492864611261409 -0,368836383303646 -0,0108033517005351 -0,958670658384122 0,143205871206938 -0,91647737620061 0,44655334635706 -0,0320722080287929 -0,136335667437549 0,190641392602282 -0,734950733889267 -0,996769610912062 -0,811129930889123 0,553043449097606 -0,338246177632468 0,878424691997034 -0,264574029125884 -0,0334107759702073 -0,511707810484379 0,581329869531075 -0,329194011707458 0,869493952262211 0,745976961512635 -0,582143492946595 -0,436744678300657 0,0630566759649209 0,522686599899874 0,165294446627364 0,419990458067324 -0,87893588991075 0,273808506656395 0,302735521520819 0,898455741007003 0,589335009891289 -0,581833412094387 -0,411301223038361 -0,620228350558515 0,582546061068102 -0,165434320056955 0,000684723635070704 0,372693089105536 0,667587694006653 0,457298618059501 -0,697576695750802 -0,344534833470656 -0,409337871593606 -0,400540522724195 -0,0437238287149573 -0,925024353654498 -0,115744877805333 -0,726764548800614 -0,858098458658523 0,0566005545968228 0,335026160969362 0,43146066748502 -0,362547652516716 -0,116422613119181 -0,41499591707437 0,465802053204182 -0,929655212197084 -0,43900023651922 -0,706082698847127 0,544961652741136 -0,258889484286985 0,932476832805084 -0,0337673213831673 -0,887064803488388 -0,399730384582958 0,142354494854757 -0,921807392499565 0,492616588847996 0,15667917698313 -0,878397524044313 0,497912271268693 -0,793174489816116 0,0161848952676887 -0,58229140339582 0,445158036439049 0,759050806045101 0,984405008551074 -0,538645156109627 -0,441924540474521 0,088720421359005 -0,454696114806891 0,853488784559787 0,123610339352333 -0,759385702911004 -0,436477638228448 -0,842074499168051 0,78463965515282 0,699370338527668 0,804372146943625 -0,884133115623651 -0,238199653616516 -0,556690280411958 0,079043444122374 -0,880949282182841 -0,287788915020749 -0,622845637390848 0,691134965401154 -0,516348753973249 -0,99845036708097 0,825500039264625 0,996929874680488 0,379511079414358 0,113139625554495 -0,978280314928942 0,567248559571777 0,12348645016222 -0,584712615297349 -0,786572661942846 0,437702247765448 -0,186802671676388 0,49056857964484 0,616768857645793 -0,988628595240562 0,205673507010831 -0,00441409831974804 -0,107388721725858 -0,194469683375558 -0,276063239539105 0,527774039907247 -0,55395504829639 0,358828967364896 -0,636727082322301 0,693213382366046 0,0478477971684769 0,365953745988281 0,0551132496685117 0,121946021928669 -0,123566425743259 0,697788784897252 0,0676058569973956 -0,93312383446262 0,497064558597492 -0,542986597735059 -0,274647716584733 0,0889358687286546 0,161391110883241 -0,256230289542486 0,100928368311028 -0,322551863912643 0,441557552781906 0,741073408014408 0,563390443701707 -0,743104881884919 -0,027539270251185 -0,371131316627051 0,141568396578611 -0,566639232972068 0,87559038942724 0,113337745755161 0,826434421745961 0,57749177233291 -0,0396855951659082 -0,0501973937964663 0,556839681028321 -0,540545767632496 0,604577439603913 0,688694857377533 -0,923016771076589 -0,342202136757788 -0,486702478317203 0,998070659248385 0,517482653909234 -0,496193804706984 -0,625554832680743 -0,246044972333404 0,987050181678504 0,155683825854705 0,282615611370338 -0,885873959928173 0,839330425078512 -0,844125941797756 0,693166287838953 -0,959977498725526 -0,902923155536875 -0,294939101875664 0,787348044488298 -0,885764923042001 -0,282058017994 -0,586224449174534 -0,797529964429865 -0,3783401378061 0,250397515525892 0,784681385334983 0,880024296388971 0,497342269812576 0,100027017068788 -0,449575023506081 -0,103544438222233 -0,735832785944914 0,472516205771877 0,478198328853589 -0,338446099950443 -0,544557147724246 -0,832886056735849 0,444329792630783 -0,780853960272204 0,0599085964636728 0,894049876986231 -0,757087085321618 -0,357313423503427 0,989227967198819 0,156779205827671 0,767250348784806 0,273750053254422 0,679229743164772 0,891398677430994 -0,0795147724196043 -0,154317462113397 -0,145260270330593 -0,330135329391494 0,508376981106595 -0,0052732627304625 0,666402907356106 -0,56143807016035 0,883034013125895 -0,255615181127611 0,732643272007457 -0,366634811761346 -0,120844901255117 0,652635943408562 0,44002851727167 -0,750514191284021 0,014910519635495 -0,359092898686164 -0,634911061629893 0,48688825290789 0,239153045643493 0,87891024767467 -0,348267991085238 -0,510056034515879 -0,292657003001489 -0,778337441704395 -0,539319567877912 0,768083528192289 -0,779845992015 0,46727969300403 0,485501415779743 -0,490720245167311 -0,799436366159313 0,61231438976208 -0,823412621657339 0,700383645204895 -0,952923997098907 0,583652676007476 0,961180493421029 -0,504726568521494 0,000227844644146391 -0,987626590519839 -0,718164024807014 -0,309244783089737 -0,513087846878587 -0,576195098833115 0,017012977586991 -0,414506210440304 0,200325725517293 0,745417163023226 -0,860708163731229 0,120871715957207 -0,0911812449534485 -0,798375791829011 -0,380415682055908 0,0427518043570712 -0,800766947944947 -0,634400490781183 0,959914689412951 0,284022993459541 -0,488450230812975 0,878959847669637 -0,787446600776319 -0,58462118095622 0,261113179863504 0,227396654341122 -0,563801789783234 0,265783893318282 0,471989324838997 0,737638307565096 -0,799896889405256 0,422803966828717 -0,320916155824124 0,866000839851177 -0,519675280207797 0,251393968736012 0,597626833409967 0,954091104531913 -0,99535505774552 -0,703777547926989 0,202029869896834 0,877578444609051 -0,42666167166755 -0,519948982920084 0,330087449348613 -0,629236275441208 0,598101441990328 0,991072755435539 -0,0304159988975555 0,139372611501763 0,502400774672157 0,680564932561642 0,632963744401718 -0,324929487328553 0,991347275059943 0,10668975109567 0,789234822615356 0,860754194612175 0,442589192115631 0,245359162398578 0,98422935308417 0,754263419919459 0,116606463930711 0,453977315414538 0,536334635753018 -0,283113751601476 -0,554120652388755 0,0406458744389926 0,722897258647907 0,385521514259455 0,446081290094511 -0,757344283710602 -0,632875578472071 0,652624167080461 -0,910712588392801 -0,368834022282531 0,321563873241521 0,73627703686353 0,0964919065361886 -0,113236854818544 0,64018452430116 -0,556038073933003 -0,703609608602821 -0,667339095561175 -0,761612323055674 -0,486712619922133 0,793867289622398 -0,998330780710294 0,876217024399908 0,372969587866873 0,443643003264818 0,736680114873704 -0,491869246260935 -0,237582152739591 -0,686040500507135 0,446742175009975 -0,236060363221297 0,119739679965478 -0,0693965393861065 -0,38395077464298 0,93257922970832 -0,443618648950246 -0,728244831867532 0,589458566957407 0,694284729833185 0,256594338278463 0,327256505922901 0,993095891555547 -0,414728892665769 0,354721639572167 0,779204316727933 -0,942290675663093 -0,233747642426977 -0,449011655224565 0,614763867943719 0,549506706195188 0,472999670253262 -0,215258377197924 0,219383469455781 0,0328600333524822 -0,0794229152623565 -0,56192539700222 0,145096219671876 -0,649031509110598 0,948280244159241 0,696691195934573 0,741330105777974 0,606229057253649 0,328131597234896 -0,366710834288806 0,862484961371017 -0,803115394761493 -0,204334637076346 -0,522510118733578 -0,0439539231210781 0,0775878539601155 -0,829577040213695 -0,311563771339751 -0,360721315732699 -0,0150008607590532 0,1887223552344 0,800776836360664 0,406051330222689 -0,467137224856406 0,590232646187429 0,378296154223184 -0,0357623428305918 0,94511576456169 0,150503471712506 -0,234608501645823 0,981440340830362 0,979475534831286 0,891562909187809 0,905776223928199 0,699065944316097 0,488165149453971 0,408445409028042 0,922360388258985 0,634587246845672 0,965520693315862 0,50959042954836 0,730027318260302 -0,334894317069919 0,966020833106335 0,48834842979795 0,571877414129535 0,25098647796943 -0,706311362933308 0,597834539006752 -0,469361528600336 0,377106907087342 -0,218157244711601 -0,856242827841854 -0,768816481037085 0,848310529462769 0,109593024057969 0,0251068501159659 -0,374653883495626 -0,240728329963691 -0,436825900880668 -0,25746255760567 0,794604849345663 -0,547111542623508 -0,44935383658112 -0,347100007312344 0,887104243702739 -0,678279112092535 -0,102517374104905 -0,216801906288489 0,458660084260813 0,672187871869509 -0,756159177255767 0,0533518563554682 -0,338831529133829 0,482900339894322 0,453406081094972 0,147573361687617 0,444408338786303 0,0422286306192542 -0,984846040829911 -0,870938822073505 -0,320150005227067 -0,637106272018428 -0,384552154711952 0,387674926582814 0,2044450134846 0,836045840432837 0,657529996206882 -0,933476149443709 -0,401648258965782 -0,537114760779714 -0,226089534872651 0,162317196470917 0,0726292074426714 0,241100267810412 0,737116177797486 0,283863765936878 -0,894120903113218 0,308367568674323 0,596597801580017 0,252675866671521 -0,636160210135464 0,511939291334788 -0,856236759411623 -0,137781556581255 0,125801112328389 0,725615774384484 0,481235599263499 -0,24763088864448 -0,614424391604858 0,962548741298234 0,587507223146976 0,587026887775331 -0,252245128215882 -0,573030977035783 -0,935829817184202 0,419746937865932 0,827461933719565 0,166789022946151 0,450850579911476 -0,952597244292973 -0,337792322012041 -0,16944155137606 -0,808093334907327 -0,00598562900520353 -0,103959474549448 0,0820729590997407 0,972897332626492 0,417029938152775 0,759515739975623 -0,825373578322636 0,0412557027216901 -0,863610067095832 0,435721266015743 -0,242169961253526 0,761301398697287 0,169598901818441 -0,784523136134352 0,755901749295487 -0,729053909400521 0,47606279854229 -0,645857150193462 -0,0945470332181455 0,686264516060098 -0,389997680239571 -0,124424388062913 0,192887617517987 -0,58113315993385 -0,346724743850925 0,174339109167054 -0,704459940001699 0,437020082364316 -0,0668893991255303 0,853376113927775 0,552146787243451 -0,407822147651627 0,536037018290982 0,319950643046848 0,145058427745576 0,96682682269407 -0,9594101052706 0,745762207622521 -0,936667666497453 -0,0112980816147475 -0,793641844449569 -0,0550466852183423 0,449222531900502 -0,850447205275035 0,982164138000224 -0,334171699845565 -0,107428104994665 0,20939336124254 -0,922700171198375 -0,103209896243171 0,977414410876446 0,699443605825411 0,754633566095253 0,13756438426971 0,568588763735689 -0,877553056713252 0,702901926983972 -0,337808983238485 0,332718857716346 -0,758646223396677 0,468461130731241 -0,276772944444003 -0,901695070427987 -0,722209040382389 0,892192915012417 -0,839961200648878 -0,777963209623773 0,852619780392633 0,0716491971375952 0,78111250880529 -0,77796416722943 0,728395937574879 -0,704535325442814 0,912023586005811 0,479939999997104 0,675760234512656 0,424971556039922 0,0441040908112648 -0,558651540771713 0,979474597886249 -0,713253141641264 0,0858169997828773 0,375301095594133 -0,961209977681118 0,888059220789831 0,850862696042083 -0,153879696924018 -0,601774187980916 0,755197716917325 0,0249199798175302 -0,733538956167542 0,374031988635231 -0,57754271469243 0,820725528258556 0,522984070006912 0,484055788715918 -0,172256945964636 0,174499697970149 -0,74753974582284 0,826586849382556 -0,554213069220828 0,0369782619213011 -0,860893796741385 -0,702739588219448 -0,335209901294051 -0,750646360928997 0,411260922200881 0,84070247736176 0,660369597485894 0,89371971954336 -0,302116298596774 -0,341729356261529 -0,765904170214824 0,364180960227815 0,948624158916929 -0,621693001993235 0,342386510394872 -0,934587883666027 -0,608039303888772 -0,961810154025779 0,317964255431463 0,829603722204883 -0,889706330339166 -0,953427835282996 0,520057471340115 -0,145592434646849 0,301673199200748 -0,53082189810434 -0,621489950275061 0,995728922445201 -0,145671250652826 -0,749996860606589 -0,203676784647567 -0,392582374835262 0,521839091706908 0,242070799374887 -0,0547972778210981 0,0820196710171844 0,368621362911632 0,636280645230231 -0,559798789824028 -0,000105243516943608 -0,263574763374172 0,845809299636319 -0,670659383095882 0,614388512061965 0,139943566537464 0,0604572124531419 0,858860055496711 0,153854864801443 -0,861414442353652 -0,239678216472105 -0,219231803293384 -0,786710098509688 -0,490695619224112 -0,382411283934613 -0,0676338498718358 -0,907337712838412 -0,230098050912638 0,814717676617361 -0,0519491121409012 -0,0589286654215107 0,463812819035606 0,66501085411289 0,0389879383621905 -0,557521500744245 0,854810624737055 0,627889471323877 0,840769597028381 -0,280753514829132 0,432371219574985 -0,739813301258353 -0,306106397538003 -0,242895081787972 0,598759928664601 -0,683170383387678 0,0931368934363413 -0,735534532189621 0,717089882151205 0,905025079740718 0,715430461662245 -0,760389084084785 -0,391059426510034 0,226969421074378 0,856764649083505 -0,907749036425715 0,470639454872922 -0,417027037956724 -0,901360025659955 -0,0964063416101392 -0,690220000304636 -0,14698411254659 -0,683633082582154 0,555804977032147 -0,31121494687373 0,497510003510227 0,536093278024998 0,0703582276161244 -0,194233879352508 0,885995430148143 0,761052765340914 0,51149769366866 0,221536057347538 0,140661368209211 0,720751040387008 0,8776164999972 -0,933117639794728 -0,974760000217355 -0,382756911929671 -0,808179672719648 0,523766914973253 -0,330859004051549 -0,624424742821194 -0,135750000158513 -0,899398857974669 -0,289252797666978 -0,668251035836508 -0,763808797590182 0,808209902021666 -0,0519580552806671 -0,0261914922944691 0,275550137452553 0,531002299226924 -0,0630784101539709 -0,591600101378506 -0,420908170883605 0,944439557706953 0,140449991244145 -0,932146290077226 -0,897583873968348 -0,218638704111786 -0,979066182759586 0,457834214323012 0,830831572537039 -0,85538003702954 -0,797695714386016 0,019197661291745 0,469663501867632 0,506711175045073 0,979283061394826 -0,975151972801253 0,445504224462618 0,962835719534002 0,904205161788662 0,378979652927043 0,640861316458038 -0,523459879730475 0,451253286243994 0,454679920075176 0,980484670048108 0,165301506437113 0,299884468097592 0,263090521123554 0,856831991439555 -0,0880274932556406 -0,512261656905171 0,981034338984303 -0,714725141820358 -0,267730002795613 0,141157810724236 0,931934826747664 -0,0745686138205019 0,957649954236076 -0,485752747091661 0,411106268098296 0,504822356533742 0,210919966421021 -0,455263401629052 -0,280319417391193 0,898750188755381 0,686771795565383 -0,137891018505385 -0,269872838973743 0,829108616696106 -0,0743234911176711 0,527302090284491 0,308450002499958 0,623159987043607 0,556202076623988 -0,233614596888423 -0,897891043146677 -0,506706062833279 0,685916093350526 -0,912825502679266 -0,0641200655211353 0,481649867589384 -0,242342511796226 0,599041306381612 -0,0809065395343295 0,656606387070747 -0,779037976734218 -0,263921725494337 -0,262729541648467 -0,634561833826951 -0,953067545372766 0,0982077741403078 0,487682943132651 0,449963406240061 -0,505410007133118 0,87443000432024 -0,569215340123153 0,933373366758618 -0,268671102233813 0,55555279718603 -0,709539415347857 -0,695783053893787 -0,429992762803881 0,433094927603862 -0,0653993388486795 0,384030221482379 0,180714648170632 -0,644652611560729 -0,272621470236509 0,964629623246572 0,0400437733417031 0,437189949950433 0,239507592366175 0,870605971892696 0,578656921266905 0,928392632460769 -0,253694871232365 0,611369504026718 0,626860395236183 0,0627614460704929 0,677789999999879 -0,0479413774833578 -0,875244855388065 -0,636378033343035 0,782920482585382 0,82358501817315 -0,959543201162861 0,858393090262537 0,131320725424749 0,682400000929104 -0,661527672858756 -0,831479459224983 0,764214697471045 -0,869644143189501 0,798093694800687 -0,367780000834229 -0,0878066351232161 0,323470082871473 -0,333099696355633 0,534992385308975 -0,524455545913221 0,865778942697328 -0,993390289494915 -0,226926537959331 0,325363549247045 -0,389944015323438 0,859946155792242 0,615949250834446 0,871605350150137 -0,432682935339284 0,127369996526453 -0,180488596728831 -0,691599961574217 0,668451060085994 0,877899983226985 0,339547101549572 -0,820728457520975 -0,795155371103279 0,652250242933918 0,11195930960751 0,342382867691506 0,321082898896244 0,222813807508629 0,04579 0,62661 -0,12907 0,67378 0,10962 -0,92395 -0,05358 0,01668 0,42324 -0,05681 -0,90965 -0,41498 0,81193 -0,0536 0,35201 0,03984 0,17192 0,96275 -0,57697 0,98652 -0,43443 -0,44531 0,5185 0,86011 -0,90523 -0,7476 -0,54515 -0,54669 -0,2921 0,67122 0,55554 -0,80965 0,1566 -0,35791 -0,03918 0,1461 -0,54549 -0,06379 -0,24963 0,54111 -0,07479 0,54908 0,70446 0,87631 -0,78196 0,08361 -0,93404 -0,60679 -0,17311 0,16438 -0,51968 0,1486 -0,07877 0,33455 -0,34182 -0,5089 -0,89189 0,01081 0,579 -0,14278 0,6212 -0,5069 -0,69122 0,75202 0,38765 0,9 0,42841 0,16984 0,98558 -0,7941 -0,41467 -0,76429 0,21238 -0,11808 0,06131 0,01649 -0,14978 0,64218 0,64207 0,01116 -0,81357 -0,93837 0,62642 0,54351 0,19089 -0,59307 0,26912 0,82205 0,98391 -0,53029 0,03799 0,44369 0,35721 0,89315 0,9199 -0,56789 0,24029 0,95243 -0,51135 -0,68197 0,65519 -0,10388 -0,59238 -0,37902 -0,42095 -0,75539 0,93622 -0,96069 -0,72677 0,64168 0,64087 -0,53408 0,36873 -0,43216 -0,32922 0,55956 -0,13333 -0,23473 -0,43887 -0,01929 -0,36912 0,60636 0,18592 0,51586 0,16791 0,14163 -0,1215 0,31923 -0,03799 -0,3708 0,7762 -0,10221 0,15353 0,32403 0,35597 0,29031 0,654 0,00544 -0,03555 -0,05373 -0,52929 0,2298 0,54881 -0,65778 -0,17116 -0,42794 -0,92505 -0,21063 0,22236 -0,63966 0,56543 -0,52499 0,3913 0,50794 0,68715 -0,95118 0,71019 -0,10825 0,45307 0,43742 0,36611 -0,38301 0,0773 0,64403 0,86548 -0,25693 0,31239 -0,9553 0,21186 0,38047 0,90556 0,86123 0,80081 0,61486 -0,49 0,40107 -0,94245 -0,15631 -0,31298 -0,40416 0,06667 -0,91088 -0,90314 -0,39833 0,06376 0,30118 0,50649 0,64558 0,63687 0,30714 0,58011 -0,23776 0,55237 0,52703 0,58015 0,85372 -0,8475 0,90477 -0,52326 -0,91424 0,25967 -0,96975 0,5775 0,84188 -0,54523 0,7042 -0,32581 0,77643 -0,00206 -0,71392 0,99127 -0,1335 -0,79527 -0,14278 -0,62926 0,27698 -0,47988 -0,52437 -0,41974 -0,4357 0,23658 0,6668 -0,59218 0,90472 0,80036 0,14331 -0,69115 -0,72622 -0,9653 -0,34373 0,24856 -0,84723 -0,63305 -0,39875 0,33616 0,03642 -0,48838 -0,74502 -0,85311 0,35956 -0,37302 0,73005 -0,35236 0,35079 0,31587 -0,28639 -0,44249 -0,30486 0,15629 -0,69684 0,33359 0,67687 0,3245 0,91244 -0,15082 0,59286 0,62242 0,67278 -0,95848 0,31146 0,39534 -0,59959 0,74173 -0,65834 0,03751 0,83849 -0,50046 0,60348 0,52106 0,33431 -0,23464 -0,73487 -0,67126 0,2207 0,93731 0,50653 0,01915 0,05703 -0,41116 0,08675 -0,41421 0,61371 0,11748 0,73153 0,32267 0,57169 -0,17173 -0,54549 0,75207 0,74329 0,414 -0,16116 -0,78654 -0,16458 0,96421 -0,77344 0,98831 -0,69402 -0,68673 0,47738 -0,78594 -0,04597 0,17408 0,82197 0,5378 0,06845 0,34813 -0,8962 0,97512 0,34265 -0,42629 -0,43462 0,08393 -0,04523 -0,27434 0,78163 0,28293 -0,98981 0,01898 0,46581 0,01021 -0,95498 0,8514 0,77776 0,92031 0,92651 -0,94833 0,49331 0,25648 0,71075 0,51821 -0,28683 -0,25625 0,11145 -0,12732 0,63176 -0,56038 0,29551 -0,80628 -0,74579 -0,77644 -0,27554 -0,52061 -0,59058 0,16958 -0,15139 0,7549 0,25869 -0,89025 -0,81742 -0,05637 0,97812 0,28699 -0,15254 -0,53284 -0,83097 0,10262 0,39632 0,90166 0,61128 0,01678 0,85481 -0,15269 -0,73563 0,82443 0,86053 0,82162 0,97248 -0,91792 0,0939 0,34201 0,98742 0,81646 -0,23524 0,24225 -0,71425 0,56563 0,44198 -0,39183 0,07169 -0,82839 -0,20702 0,38356 0,0739 -0,23289 0,54009 0,42617 0,89629 -0,35571 -0,29636 -0,47086 0,0433 0,39384 -0,41756 0,23743 -0,63125 0,87714 -0,78498 -0,41502 0,30905 0,02699 0,78242 0,1766 0,01585 -0,15944 -0,04379 -0,83835 -0,47777 0,60521 -0,81859 -0,3966 0,66063 -0,21186 -0,17004 0,43967 -0,77621 -0,52875 0,77341 0,49725 -0,71566 -0,56565 0,92533 0,32818 0,37844 -0,43524 -0,7013 -0,40643 0,23402 0,52733 -0,1265 -0,5914 0,35061 -0,143 0,29912 -0,9553 -0,61081 0,61637 -0,63229 -0,76667 0,8109 0,37843 -0,09606 -0,70892 -0,53712 -0,89976 -0,1315 -0,74485 -0,43612 0,14276 0,01363 0,89749 -0,89627 -0,28224 -0,69937 -0,12531 0,10165 -0,54577 0,79816 -0,54892 -0,45814 -0,63737 -0,07238 -0,00511 -0,26829 0,7728 0,25278 -0,19638 0,48902 -0,21475 0,05048 -0,39259 -0,89646 0,54007 0,68634 -0,0941 0,5304 0,63425 -0,1347 0,27819 0,69625 -0,95646 -0,97032 -0,90874 -0,48631 -0,024 -0,69513 -0,36716 -0,44363 -0,57558 -0,05696 0,93495 0,81821 0,91662 0,69147 0,44826 -0,54919 0,90904 0,55937 -0,30993 -0,15254 -0,93513 -0,23387 0,77862 -0,90772 -0,59379 0,79395 -0,43635 0,03142 0,39472 0,34428 0,4674 0,58892 -0,48004 -0,24517 -0,50169 -0,66706 -0,16364 -0,5188 0,7557 0,46793 -0,38007 -0,75275 0,0646 0,8422 0,11552 -0,2108 -0,81309 0,8486 -0,76193 -0,54491 0,62136 -0,92513 -0,82477 -0,56927 0,63137 0,27741 -0,74894 0,99897 -0,89253 0,18204 0,74121 0,60142 0,16165 0,08013 0,47564 -0,65397 0,29824 0,16179 0,19316 0,11531 0,61445 0,42784 0,80366 0,22214 -0,77248 0,81762 0,70153 0,93641 -0,02324 0,61701 0,60703 -0,28495 -0,20666 -0,06037 0,72292 0,39252 0,41369 -0,91077 0,12345 0,22089 -0,91812 -0,16262 -0,62627 -0,42635 0,72671 0,0185 0,0856 0,98446 -0,63344 -0,23052 0,49095 0,02512 -0,34457 0,12275 -0,15937 -0,80648 -0,72879 -0,04692 -0,7968 0,81375 0,57588 -0,68536 0,0222 -0,50955 0,57501 0,02616 -0,19192 -0,77799 0,35721 -0,91689 -0,06767 0,20901 -0,96167 0,97226 0,03343 -0,22294 0,0541 0,23 0,49543 0,20902 -0,26798 0,71706 0,56985 -0,79273 -0,87394 -0,41809 -0,94039 0,67058 -0,90101 0,5294 0,12131 -0,53939 0,88602 0,3097 0,64501 0,76723 0,81517 0,88327 -0,00136 -0,29946 -0,78958 -0,13642 -0,37275 -0,71656 0,83715 -0,71807 -0,01322 -0,31684 -0,91068 -0,93644 0,13941 0,0412 0,45765 -0,00582 0,08172 0,85881 -0,25521 -0,18507 -0,63561 -0,00691 -0,03346 0,13749 -0,87698 0,8278 -0,0382 -0,52828 0,32298 -0,27137 -0,67275 0,26619 -0,03812 0,17083 -0,76865 -0,20512 -0,00141 0,86844 0,08981 0,2864 -0,62988 0,84412 0,59512 0,37644 0,58125 -0,96458 -0,61002 -0,9199 0,00296 -0,10816 -0,77203 0,78619 0,02243 0,00024 0,51887 -0,99445 0,73399 0,07292 -0,25945 -0,20056 0,32164 0,36543 -0,04106 -0,74186 -0,64409 -0,17688 0,10167 0,96858 -0,19015 -0,33724 0,99558 0,21327 -0,23101 0,45839 -0,5552 -0,47973 0,39796 0,5901 0,55623 -0,91241 0,43781 -0,11831 0,46876 -0,56886 -0,49935 -0,45895 -0,75625 0,96164 0,65195 -0,7742 0,06089 0,92566 0,12788 -0,70964 0,96475 0,00469 -0,11483 0,33698 0,02053 -0,24187 -0,06626 -0,5786 0,27025 -0,65981 -0,10375 0,0147 0,01719 0,56404 -0,44457 -0,0014 -0,39242 -0,85611 0,51669 -0,34704 0,36162 -0,56006 0,89666 -0,47221 0,75749 0,81485 -0,42063 0,14003 -0,68337 -0,41596 0,60187 -0,93008 -0,91461 -0,52138 0,49363 0,44011 0,63509 -0,93902 -0,43044 -0,2019 0,15384 0,01641 0,61144 0,12856 0,53489 0,48595 0,52386 -0,32029 0,4062 -0,34666 0,61822 -0,08301 -0,59103 -0,52508 -0,07126 0,52481 0,10802 -0,64263 0,57948 0,20568 -0,82125 0,79371 -0,89523 -0,3138 -0,26168 -0,17368 -0,0707 -0,46144 -0,9296 0,11531 0,3635 -0,45341 0,57432 -0,28142 0,49911 -0,65479 -0,17151 -0,2319 -0,0071 -0,72847 -0,70901 0,89965 0,73383 0,66328 -0,03418 -0,31513 0,66094 0,61046 0,54988 0,96882 -0,66791 0,27772 -0,51851 0,36388 -0,38066 0,36013 -0,08836 -0,07477 -0,60977 -0,29144 -0,44336 -0,01471 -0,3907 -0,70912 0,28983 0,07162 0,34266 0,69039 -0,02419 -0,41648 -0,30369 -0,66009 0,36447 0,30795 -0,08531 -0,7209 -0,94012 -0,55852 0,72038 -0,94656 0,16538 0,31884 -0,01132 -0,89842 -0,21678 -0,91422 -0,93491 -0,78956 -0,90077 -0,86103 0,43357 0,90326 -0,62214 -0,71567 0,71488 0,30569 0,29034 0,44294 -0,62655 0,8942 0,3422 0,97055 -0,36535 -0,03365 0,2725 0,99217 0,91324 0,17354 -0,55081 -0,65976 0,30025 -0,52985 0,20485 -0,66322 0,54318 0,2378 0,9966 -0,49228 0,50766 0,20404 0,00652 0,13222 0,59115 -0,16317 0,14995 -0,20695 0,96204 0,08014 0,59307 0,60899 -0,01125 -0,38307 -0,93197 0,82618 -0,28877 0,19482 -0,31582 -0,97768 -0,17093 -0,20896 -0,82747 -0,10845 0,76124 0,75899 -0,16129 -0,03658 -0,30159 -0,95892 -0,25885 -0,52293 0,30908 -0,21738 0,93528 0,1694 -0,11233 -0,79002 -0,6206 0,79781 0,8164 -0,52055 -0,96988 -0,1669 0,58047 -0,1598 0,35149 -0,31668 -0,59789 0,37867 0,62554 -0,65165 -0,44639 0,97428 0,67864 -0,28339 0,0315 -0,88504 0,37097 0,83215 0,99812 -0,81347 -0,90536 0,92096 -0,66102 0,11599 -0,7001 -0,79388 -0,31835 -0,10138 -0,0615 -0,49875 -0,18458 -0,11363 -0,79408 -0,65038 -0,23909 0,33942 0,31108 -0,07896 -0,59251 -0,84461 -0,4387 0,31973 -0,58447 -0,60721 0,92345 0,3348 0,10398 0,21866 -0,86211 -0,22729 -0,161 -0,45276 0,79969 0,62986 -0,61519 -0,89085 -0,50589 -0,53553 -0,45971 0,14536 -0,99833 0,50348 -0,55984 0,12429 0,53292 0,66724 0,76836 0,32901 0,95569 0,69207 -0,19613 -0,55008 0,42466 0,84272 0,62523 -0,2251 0,50543 0,94619 0,19253 -0,0349 0,10214 0,46298 -0,23927 -0,83421 0,66224 -0,73182 0,08668 -0,42395 0,96481 -0,34824 -0,15469 -0,1534 -0,61925 0,26212 -0,84628 0,05781 -0,12043 0,29123 -0,14014 -0,74379 0,56644 0,77496 0,26297 -0,55419 0,96883 -0,61093 0,12258 0,95696 -0,99537 0,6099 -0,39628 -0,45208 0,27194 0,57519 -0,95678 -0,46132 -0,25725 -0,72563 0,46204 0,26474 -0,41945 0,1923 0,3642 0,30393 -0,15324 0,95726 -0,93083 -0,83747 0,689 -0,43258 0,89532 -0,78581 0,08632 -0,06369 0,39865 0,32717 -0,8 -0,68509 -0,80305 0,27317 0,1456 0,12972 -0,42858 -0,6451 -0,95197 -0,70262 0,57466 -0,19445 0,2189 0,61503 -0,68495 -0,39481 0,82919 0,59512 0,67566 -0,62587 -0,58924 0,95904 0,59904 -0,98844 -0,68011 -0,03995 -0,73204 0,4372 0,71457 -0,61048 0,4616 -0,66438 -0,82347 -0,28395 -0,66132 -0,57217 -0,92259 -0,81113 -0,88086 0,45083 -0,37913 0,00929 0,25589 -0,45062 -0,6174 0,26362 -0,05637 -0,92604 -0,74764 0,29013 -0,615 0,49119 0,26065 0,02451 -0,0836 -0,75904 -0,28414 -0,81461 -0,04673 -0,81445 -0,13825 0,13421 -0,35968 0,65851 -0,16422 0,23903 -0,37098 -0,49716 0,27635 0,88721 -0,47222 0,64032 0,47598 -0,77518 0,75326 0,40147 -0,29686 0,04966 0,62896 0,05627 -0,98359 -0,80601 0,18484 -0,57556 -0,99549 0,9704 0,07497 0,15201 0,79965 -0,90229 0,71196 0,89202 0,23559 0,93359 -0,41093 0,48665 -0,63104 0,59738 0,7136 0,14356 -0,3654 -0,55922 -0,2024 -0,63486 -0,23765 -0,25532 -0,98479 0,03582 0,27125 0,51492 0,53781 0,6662 -0,44357 0,89699 -0,83087 -0,33224 0,94937 -0,78412 0,65399 -0,13463 -0,83594 0,477 -0,29681 0,17863 -0,82475 -0,36425 -0,59528 0,54239 0,63575 -0,7334 0,0325 0,10576 0,33606 -0,51461 -0,57833 0,57563 0,39638 -0,18031 0,66209 0,25983 0,95518 -0,96086 0,88076 -0,71528 -0,44011 -0,95424 0,33559 0,33859 0,76446 0,92131 0,53728 -0,84692 0,94338 -0,15178 -0,02051 0,15759 0,73759 0,61897 -0,81011 -0,87341 -0,66005 -0,52718 0,40007 0,00464 -0,51759 -0,56795 -0,66986 -0,92897 0,47532 -0,40651 0,27137 0,12967 -0,44622 -0,60584 -0,08982 -0,87508 0,59624 -0,58154 -0,38127 -0,87052 0,30016 0,06613 0,77793 0,71444 -0,27068 -0,12058 0,16238 -0,51216 0,50589 0,26407 0,83803 0,77741 -0,3702 0,53549 -0,08012 0,48236 -0,36094 -0,12389 0,8023 -0,87216 0,71561 0,26455 0,86327 0,17096 -0,35007 -0,5924 0,59929 0,54922 0,93803 -0,14543 0,56135 0,31912 0,00023 -0,9396 -0,17357 0,27382 -0,30511 0,68563 -0,72469 0,60299 0,26967 0,8423 -0,43487 -0,78876 -0,24455 0,49396 -0,50013 0,01828 0,47428 0,42782 0,48585 -0,27988 -0,38384 -0,50911 -0,58613 -0,9644 0,20285 -0,39304 0,0645 -0,67828 0,28013 0,61316 -0,4502 -0,34868 0,70272 -0,48109 -0,22282 -0,43061 -0,29094 0,64605 -0,21253 -0,04657 -0,39921 -0,80069 -0,14183 0,87331 -0,30058 0,65202 -0,5845 0,15597 0,90773 -0,419 -0,92507 -0,4898 0,36871 -0,15877 -0,29704 -0,49067 0,64653 -0,20917 -0,92904 -0,91208 -0,37888 0,95359 -0,67714 0,65651 0,29249 0,9138 -0,49148 -0,76346 -0,28323 0,93047 -0,69078 0,82822 -0,35965 -0,46758 -0,88068 -0,58315 0,63271 -0,45945 0,33618 0,55082 -0,80854 0,90853 -0,58601 -0,30088 0,53822 -0,96041 0,28261 -0,13852 0,81594 -0,73216 -0,07714 0,91823 0,57509 -0,30046 -0,6677 -0,3528 0,87645 0,20166 -0,41919 -0,21439 0,1435 -0,82105 -0,56081 0,97725 -0,72823 -0,75329 0,86985 -0,16372 -0,2781 -0,7139 -0,12338 0,10597 0,45465 -0,47987 0,89646 -0,28741 0,5396 0,62373 -0,88172 0,25289 -0,36882 0,64703 -0,57941 -0,55107 0,0076 -0,60901 -0,74687 0,9408 -0,79988 0,47212 -0,4596 -0,56895 0,95973 -0,44944 -0,59268 -0,9875 0,46933 -0,56327 -0,57266 0,2915 -0,83027 -0,55367 -0,86042 0,52984 0,39121 0,81688 -0,53642 0,05495 -0,19692 0,61971 0,1076 -0,74729 0,08337 0,32792 -0,84558 0,49646 0,75836 0,99025 -0,03035 0,88078 0,99358 0,92905 -0,36384 0,24978 0,7457 -0,55443 0,14624 -0,09592 -0,88719 0,88395 0,24325 0,10286 0,19638 -0,17322 0,08315 -0,81515 0,50745 -0,10925 0,05771 0,19072 0,92741 0,19817 0,13771 -0,41959 -0,63548 -0,71232 0,34767 -0,36819 -0,60387 -0,08915 -0,74587 0,47908 0,46708 -0,45344 0,29792 -0,75932 0,81016 -0,1102 0,78413 -0,05436 -0,32936 0,55949 -0,05786 -0,08088 -0,62355 -0,99527 0,05633 -0,74341 -0,75524 0,96956 0,98901 -0,1324 -0,06747 0,77892 0,95336 -0,2046 -0,20866 -0,94425 -0,11475 0,45802 0,09789 -0,48558 -0,49206 0,20195 0,62981 0,76417 0,63578 -0,35019 0,52885 -0,15753 -0,62531 -0,38235 0,10662 -0,88794 -0,47993 -0,63209 -0,74397 -0,78142 -0,79605 -0,64021 0,23135 0,09107 -0,61295 -0,57343 -0,07816 0,38653 -0,45346 0,68815 -0,40681 -0,49749 0,44933 0,75441 -0,99546 -0,67389 0,84774 -0,84379 0,05154 0,74018 0,28931 -0,38772 -0,63106 -0,59349 -0,27227 0,40228 0,59487 0,37136 0,76098 -0,17954 0,25885 0,58544 -0,46063 -0,42725 0,85179 -0,47454 -0,77334 -0,99319 -0,87263 -0,91863 -0,71989 -0,75672 0,21762 0,94763 -0,94338 0,02634 0,39313 -0,37973 -0,3869 -0,2195 -0,73568 -0,63614 0,31637 -0,48416 -0,07073 0,59167 0,99084 -0,17516 -0,63666 -0,01524 -0,16831 0,55047 0,62554 0,72607 -0,5707 0,00774 0,96313 -0,12342 0,90261 0,47908 -0,90056 0,84092 -0,97117 -0,02983 0,46007 0,04602 0,39465 -0,57869 -0,65011 0,70139 -0,99085 -0,02541 -0,24175 -0,01953 -0,44386 -0,10502 -0,73093 -0,97647 0,64348 -0,73988 -0,46539 0,40182 0,64347 0,14261 0,24967 -0,27037 -0,38226 0,49155 0,51832 0,04887 0,0632 -0,48345 -0,28234 0,13402 -0,31894 -0,57661 -0,66498 -0,6538 0,05576 0,88324 -0,80299 0,56953 -0,52505 -0,33806 -0,0244 0,8571 -0,20779 -0,35493 0,16992 0,53431 -0,26133 0,9396 0,23309 0,64248 -0,05554 -0,30238 -0,80256 -0,11378 0,72049 -0,26957 -0,57172 0,9031 -0,09702 0,30101 -0,36181 0,49259 -0,74308 0,62423 -0,70059 -0,86725 -0,44004 0,92287 -0,03223 0,76023 -0,93689 -0,03492 -0,07314 -0,01847 -0,833 0,39257 0,93741 0,97266 -0,67837 0,98401 -0,68981 0,1236 0,28346 0,07517 -0,81044 0,98343 -0,77406 0,44879 -0,37429 -0,67468 0,45496 -0,70609 -0,33346 0,17393 -0,97625 0,48301 0,60017 0,16798 -0,65435 0,03716 -0,02565 -0,18421 -0,02818 0,47286 0,57937 0,97937 0,77076 0,21591 -0,28079 -0,67209 -0,20698 -0,54439 0,58147 -0,08103 -0,00919 0,51459 -0,79087 0,18175 0,43467 -0,68403 0,90681 0,11116 0,29716 -0,35756 -0,69474 0,7692 -0,70146 0,75292 -0,04222 -0,31601 0,7924 -0,23057 0,62701 0,28446 0,00965 0,49439 -0,84823 0,81059 0,4958 -0,78982 -0,78733 0,01002 -0,27043 -0,70221 0,5323 -0,00065 -0,28756 0,74756 -0,81689 -0,49085 0,27387 -0,58158 0,73331 -0,97033 0,13035 0,86318 0,51863 -0,67062 0,16759 0,81016 0,68083 -0,98217 -0,74188 -0,96478 -0,46449 -0,97642 -0,1714 -0,703 0,90931 0,49642 0,36281 -0,60147 0,68594 0,22448 -0,8967 -0,10322 -0,61842 -0,00064 0,11013 0,30591 0,05676 -0,44903 0,56981 -0,55138 0,41011 0,37398 0,03611 0,59733 -0,84589 0,14647 0,97576 0,82238 -0,357 0,68563 -0,47066 -0,80517 -0,2481 -0,30565 0,76228 0,50871 -0,82925 -0,58457 0,83824 -0,31331 0,14633 -0,12467 -0,26753 -0,49117 0,92636 -0,76644 0,4816 -0,48074 0,21924 0,86167 -0,2466 0,12986 -0,55199 0,80949 -0,3749 0,16152 -0,01253 0,23126 -0,85711 -0,23716 0,52065 0,54043 0,75552 -0,9997 -0,30487 0,90846 -0,85512 0,68723 0,23707 0,60142 0,13516 -0,35868 -0,28728 -0,11689 0,30228 -0,46523 -0,3585 -0,47272 0,67096 0,92054 0,66486 0,45649 -0,39686 -0,21867 -0,06778 0,39948 0,74681 -0,0576 -0,93076 -0,39925 -0,47876 -0,06052 -0,72747 0,07539 0,16603 0,6059 0,11981 -0,26784 0,81369 -0,98211 -0,91133 0,79436 0,28218 0,61782 -0,2735 -0,88792 -0,58287 0,5649 -0,4928 -0,90967 -0,47998 -0,53982 0,56029 -0,77766 0,09798 -0,93584 -0,06272 -0,02581 0,06808 0,29564 -0,83835 0,20248 0,61798 -0,36368 0,08018 -0,80432 -0,63122 0,63732 0,71707 0,69638 0,41496 0,90933 -0,28642 0,65306 0,83186 0,8705 -0,8257 -0,01468 -0,94518 -0,17986 -0,01765 -0,81809 -0,56481 0,97891 -0,91927 -0,93895 0,37918 -0,94981 0,97741 0,10187 -0,33138 -0,85439 0,66408 -0,48196 0,85624 -0,11381 -0,82363 -0,35414 -0,46236 -0,46918 0,74329 -0,2202 0,84782 -0,18918 -0,32464 -0,38932 0,7466 0,90723 -0,60953 0,22747 0,88985 0,95196 -0,08063 -0,75207 -0,68671 0,97973 -0,23272 0,63907 -0,44442 0,01912 -0,18351 -0,68141 0,6599 -0,38481 0,02775 0,26935 -0,75475 -0,80446 0,79681 -0,05433 0,69412 0,52843 -0,55232 0,52399 0,07684 -0,79746 -0,66591 0,62436 0,30354 0,47005 -0,68555 0,47195 0,65971 -0,25007 0,21202 -0,28334 0,22623 0,41614 -0,79525 0,87651 -0,8811 -0,46271 -0,90972 0,51851 0,71432 0,4247 0,1199 0,23262 0,78306 0,40601 -0,63457 0,55105 -0,88959 0,4448 0,53335 -0,63858 0,50427 0,39537 0,17108 -0,88925 0,64564 0,14292 -0,66447 0,08552 -0,29533 0,34454 -0,34113 -0,09004 0,40317 -0,68891 -0,95689 -0,1709 0,99079 0,9203 -0,17324 0,15682 0,43814 -0,07083 0,80966 0,65214 0,08263 0,10146 0,84129 0,89753 0,10462 -0,23661 0,36154 -0,78509 0,21658 -0,14941 0,21238 0,83085 -0,75494 -0,90601 -0,76913 -0,02402 -0,79824 0,00475 -0,18617 -0,63022 -0,23418 -0,79007 0,82944 0,47197 0,36289 0,53632 0,56026 -0,8099 -0,38197 -0,62347 -0,07673 -0,4249 0,58571 0,51893 0,02811 -0,45583 0,30162 -0,562 0,9809 0,94127 0,983 -0,55604 0,69338 -0,44743 0,09871 -0,78775 -0,41596 0,89679 0,68942 0,85077 -0,04494 -0,56661 -0,88467 0,43988 -0,11368 -0,1273 0,27201 -0,63068 -0,46537 0,56829 0,20312 0,17143 0,59687 -0,15995 0,92732 -0,36272 -0,75486 -0,27388 0,06588 0,68669 0,67436 0,76376 0,02385 -0,12745 -0,61322 -0,67814 -0,48346 0,27686 -0,62674 0,15063 -0,04772 0,66346 -0,49933 -0,23274 0,42147 -0,51012 -0,54023 -0,85418 -0,36739 -0,8446 0,27216 -0,06771 0,90336 -0,5874 -0,26186 -0,18844 -0,15292 -0,14667 -0,37475 -0,53858 0,96711 0,85792 -0,16909 -0,99727 -0,8236 0,19129 0,40953 0,24277 0,05309 -0,43554 -0,64385 0,99514 0,99606 0,384 -0,38399 0,53965 -0,32925 -0,1704 0,41857 0,43744 -0,8225 -0,90069 -0,9065 -0,08953 -0,58547 -0,25793 0,86039 -0,38876 -0,8656 0,57521 0,47477 0,66321 -0,34839 0,91183 0,18352 0,09435 -0,16745 -0,50206 -0,40914 -0,76983 0,08034 0,21699 0,09273 -0,93185 0,79925 0,27701 -0,06378 -0,48064 0,79658 0,19849 -0,85919 -0,98253 0,43475 0,1878 -0,71608 0,86779 0,76441 0,92043 0,5882 0,43433 0,3309 -0,20171 0,10836 0,47787 0,08968 -0,30706 0,34353 -0,91577 -0,79953 0,52165 -0,2929 -0,8272 -0,76126 0,1884 -0,6429 -0,0395 0,00658 -0,97465 0,11122 0,13751 0,80584 0,34103 -0,18535 -0,06409 0,4344 0,45729 -0,77155 0,4638 0,62791 0,31572 0,32994 -0,08789 -0,09026 0,15653 -0,10073 -0,71795 -0,89137 0,61485 -0,02154 0,1063 0,93348 -0,14801 -0,68112 -0,72507 -0,50862 0,968 0,77873 -0,75365 -0,1693 0,32341 -0,13879 0,73905 -0,19079 -0,54932 0,62848 0,98986 0,98363 -0,82756 -0,95653 0,63239 -0,53552 0,87972 -0,54368 -0,11525 -0,80829 0,79498 0,26306 0,08221 -0,71088 -0,92495 -0,14813 0,39172 0,04689 -0,99509 0,20403 -0,04615 0,02215 -0,46028 -0,55547 0,4664 0,67856 0,9821 -0,3669 -0,69551 -0,54549 0,59088 -0,8971 -0,54094 0,52804 -0,0906 -0,70159 0,93619 0,57138 0,34606 -0,35818 -0,94624 -0,60434 0,43413 -0,91678 -0,3036 -0,29507 -0,30349 0,95722 -0,24436 -0,52847 0,46948 -0,30784 -0,1957 0,24664 -0,32538 -0,03229 0,4439 0,72791 -0,42293 0,95383 -0,51762 0,24661 -0,84818 -0,56977 -0,39918 0,69208 -0,196 0,55416 0,37972 0,77663 -0,08432 0,82034 0,70082 0,36309 0,15027 -0,44181 0,58802 -0,5435 0,74812 -0,23854 -0,01796 -0,97513 0,87745 0,83296 -0,01497 -0,10128 0,2986 0,21241 -0,14658 0,94169 -0,1455 -0,79173 -0,0057 0,39223 -0,84057 -0,19286 -0,75616 0,00389 0,48239 0,00432 0,90093 0,14234 -0,4225 -0,02099 0,55585 0,64913 -0,00867 0,4412 -0,90363 -0,88357 0,37969 -0,0126 0,97978 0,8156 -0,02822 -0,5425 0,36915 -0,68114 0,4452 0,7021 -0,60652 0,59158 -0,29926 0,43802 -0,07788 -0,2926 -0,17396 -0,69142 0,20365 -0,65688 -0,68565 -0,41587 -0,0259 -0,2562 -0,13948 0,8397 0,44737 -0,10156 -0,7229 0,33589 0,90738 0,85739 0,11604 -0,26301 -0,438 0,8671 -0,77151 0,1787 -0,57955 0,70192 0,43799 0,92497 0,55868 0,78029 -0,38916 -0,69065 -0,5584 0,13948 -0,94312 -0,15155 -0,17691 -0,31726 -0,76245 0,75324 0,80207 -0,20444 -0,98671 0,23597 -0,04493 0,13207 0,01013 -0,52929 -0,95825 -0,8907 0,79471 -0,46392 -0,52447 0,96374 -0,12399 0,05502 -0,5211 0,64733 0,88813 0,50172 -0,09487 -0,61063 0,02544 0,19381 -0,86704 -0,44883 0,3981 -0,69212 -0,15845 0,42865 -0,4872 0,22463 0,61984 0,3628 -0,06509 0,76644 0,8538 -0,00748 -0,77638 0,28837 -0,30822 -0,03272 0,88322 0,44937 0,98557 -0,92525 0,83382 -0,52215 -0,73654 0,00186 -0,63046 0,17575 -0,20539 -0,26418 -0,15189 0,4127 0,77011 -0,18053 0,103 -0,5961 0,73397 -0,29776 0,62915 -0,3869 0,5965 -0,42992 -0,08376 0,11272 0,02883 0,10957 0,20121 0,48638 0,42371 -0,40025 -0,19006 0,93785 -0,49385 0,57607 0,20824 -0,94179 -0,28266 -0,07975 -0,95558 0,83968 0,0591 0,33704 -0,56998 -0,11598 -0,48531 0,52221 0,99632 0,03432 0,88951 0,81971 0,5544 0,98953 0,33812 0,27011 0,85286 0,41548 0,1585 -0,27891 0,44902 0,15388 0,80065 -0,11684 0,75204 -0,80514 0,92588 -0,08974 -0,09346 -0,80596 0,61123 0,04479 0,68655 -0,18629 -0,34218 0,78946 0,554 -0,74055 -0,85994 -0,96778 -0,40197 0,50661 0,11324 -0,83312 0,59686 0,60399 0,04534 -0,1796 -0,40028 0,23604 0,7232 0,79275 -0,1003 0,99625 0,47123 -0,10946 -0,96097 -0,82407 0,585 -0,76484 -0,04186 0,60442 -0,38434 0,80228 0,42309 -0,15528 -0,86685 -0,25932 0,33171 0,54865 0,7161 0,59341 0,27542 0,12628 -0,87695 0,9424 -0,95937 0,63376 0,2863 -0,85196 0,14951 0,10547 -0,68947 0,6705 -0,52917 0,81847 -0,85492 0,6903 0,34248 0,76727 0,75043 0,37807 -0,32556 0,90489 0,07408 -0,0064 -0,10906 0,31096 -0,25622 -0,24786 0,47084 -0,69535 0,48868 0,05106 0,51993 -0,87021 -0,48268 0,77341 0,87319 0,52882 -0,1501 -0,59474 -0,11037 0,43696 0,08564 0,85266 0,29389 -0,05484 0,33144 0,60461 -0,30037 -0,55716 0,3982 0,56443 0,79822 -0,66197 -0,08104 0,37053 -0,9478 0,12944 0,05145 -0,27033 -0,11003 -0,46585 -0,3228 -0,15515 0,61679 0,25946 -0,84943 -0,65896 0,30114 -0,62833 0,81711 0,81365 -0,08263 0,34516 -0,51157 0,23748 -0,18076 0,22141 0,69971 0,94578 0,97951 0,13916 -0,9475 0,02799 -0,09355 0,92424 0,25284 0,18189 0,21082 0,14679 0,7212 -0,25626 -0,52263 -0,87977 0,51529 -0,64453 -0,24024 -0,75922 -0,76414 -0,96558 -0,20542 -0,00961 -0,69653 -0,67204 -0,37427 0,58454 -0,35294 -0,54695 0,84959 0,68148 -0,44872 -0,16921 0,42972 0,10566 -0,24985 0,7508 -0,51836 0,6492 0,9384 0,69255 -0,99338 -0,03132 0,13022 -0,84565 -0,34954 0,07336 0,33628 -0,20287 0,82987 -0,86704 -0,52229 -0,42155 -0,01446 0,66529 0,1512 -0,01088 -0,16431 0,72454 -0,59775 0,3219 0,27717 -0,20022 0,33229 0,52934 -0,40449 -0,10959 0,31402 0,3717 0,37007 0,76448 0,87382 0,11055 -0,69762 -0,45669 -0,97221 0,8259 0,86017 -0,85088 0,6775 0,55237 -0,75175 0,84992 -0,37682 0,71663 0,20376 0,97282 0,84524 0,76443 0,95446 0,76103 -0,08489 -0,2429 0,24695 -0,38351 -0,58463 0,20683 0,63638 0,60088 0,55883 0,76004 0,75933 0,96458 0,42706 -0,93461 -0,74087 0,36716 -0,72393 -0,55777 0,63749 0,32529 0,12894 -0,31343 -0,95296 -0,15013 0,07364 0,42724 -0,8234 0,61565 -0,67442 -0,37731 0,04517 0,54958 0,41724 0,60903 -0,15063 0,11672 0,8636 0,68588 -0,87206 -0,17904 -0,81049 -0,74071 -0,40972 0,91745 0,79304 -0,71633 -0,57714 -0,44222 0,4575 0,83659 0,69674 0,403 -0,87307 -0,37084 -0,36792 -0,77147 -0,28994 -0,60293 0,54285 -0,01187 0,03023 -0,97928 0,2753 -0,06387 -0,28514 -0,79026 -0,45266 0,81802 0,21602 0,1424 0,50356 -0,40981 -0,68571 -0,18347 0,13578 -0,13035 -0,90372 -0,87042 0,05683 -0,21003 0,00437 0,61881 -0,84185 -0,51102 -0,07406 0,64216 0,42265 -0,21193 -0,02305 -0,37917 -0,59334 0,46652 -0,85697 0,1398 0,79073 -0,83121 -0,01602 0,65414 0,20259 0,58329 0,73633 -0,39516 0,34176 -0,68491 -0,66697 0,10655 0,08871 0,3104 0,49338 0,76243 -0,86776 -0,41952 0,34024 -0,24713 0,98375 0,41141 0,86257 -0,21369 -0,98982 0,07269 -0,21291 0,75926 -0,15893 -0,40482 -0,26426 -0,96297 -0,55285 0,17448 0,0258 -0,03302 0,88566 -0,55787 -0,07302 0,47354 0,05364 -0,60047 -0,72296 0,84305 -0,84406 0,81939 -0,44655 -0,88775 0,29469 0,21452 -0,51141 0,82618 -0,87373 0,39015 0,15605 -0,62069 -0,69378 -0,80233 0,64395 -0,87011 -0,20381 0,97706 0,76377 -0,25342 0,57935 -0,70401 -0,34061 0,91423 -0,7154 -0,47361 0,87676 0,6901 0,65349 0,86669 0,69923 0,58422 0,13437 -0,98049 -0,36963 -0,80921 -0,48076 -0,32516 -0,53543 0,62655 -0,89342 -0,09044 0,91075 0,05699 -0,98158 -0,35352 -0,33924 0,68799 -0,20183 -0,20291 -0,32266 0,07657 -0,36425 0,53046 -0,7363 0,85994 0,15999 -0,36079 0,82764 -0,23171 0,33775 -0,20152 -0,82732 -0,74042 0,69092 0,57183 0,24494 -0,7133 0,56729 0,45316 0,61064 -0,87866 0,51248 -0,86278 -0,36001 -0,33022 -0,61477 0,6024 0,8958 0,63811 0,86562 -0,81124 -0,10808 -0,14361 0,18935 -0,37735 -0,05154 0,60391 0,7558 -0,22958 0,03079 0,88003 -0,15281 0,69627 -0,71121 0,3081 -0,26313 0,65117 0,36607 -0,55341 0,40154 -0,62594 -0,87931 0,34501 0,18645 -0,44401 0,56408 -0,50147 -0,10954 0,59392 0,47471 0,55759 -0,25659 -0,81047 -0,09734 0,14899 0,90656 0,31629 0,07022 0,06826 -0,37663 0,64103 -0,46911 -0,20313 -0,57764 0,73061 0,27415 0,8162 0,84842 0,33189 0,9329 -0,26595 -0,76368 0,44921 -0,76343 0,49156 -0,93194 0,54691 0,66994 -0,36665 0,05856 -0,55008 -0,28656 -0,83812 0,29571 0,4732 0,13662 -0,34234 -0,20639 0,13979 0,40154 0,42058 -0,41906 -0,7022 0,82321 0,7605 0,84316 0,32382 -0,07736 0,45584 0,28184 0,74787 -0,34989 0,55857 0,66101 -0,25935 0,32126 0,29419 0,95296 0,41109 0,08093 -0,64036 0,64635 -0,56313 -0,9903 -0,82655 -0,07242 -0,631 0,50116 -0,05084 -0,40602 -0,38352 0,02259 -0,29138 0,93035 -0,48768 -0,84689 0,93852 0,62599 -0,52394 0,6484 -0,25577 -0,37574 -0,78591 0,3515 0,31068 0,79981 0,15487 -0,49913 -0,44494 -0,84807 0,84242 -0,2953 0,38251 -0,94114 0,04189 0,77423 -0,85593 -0,7119 0,64976 -0,16708 0,47415 0,82266 0,97347 -0,13815 -0,33465 -0,27472 0,94148 0,62822 0,14869 -0,41247 0,38273 0,6682 0,47689 0,76269 -0,66331 0,73538 0,43225 0,08537 -0,30099 -0,62636 0,77271 0,86813 -0,05391 -0,20278 -0,24844 0,91178 0,64007 -0,35025 -0,11155 -0,26192 -0,99096 0,65042 0,97622 0,64314 -0,82576 -0,07843 -0,34922 0,35224 -0,31386 -0,4146 0,85832 0,52665 0,35217 0,96752 -0,23081 -0,82578 0,2278 0,61982 0,72217 0,30651 -0,65803 0,05869 0,58909 0,27612 0,0602 0,60601 -0,12344 0,17625 -0,88971 -0,24643 0,0852 0,29172 -0,26024 -0,5894 -0,42151 0,73231 0,69197 0,83375 0,58844 0,41511 0,08459 -0,91999 -0,60078 -0,8864 -0,48469 -0,75395 -0,48404 -0,02143 -0,97198 -0,42267 -0,31602 -0,97975 -0,07242 0,58194 -0,60389 -0,04966 -0,93867 -0,29991 -0,41707 -0,43178 -0,95499 0,47453 0,24194 0,93257 0,5002 -0,4334 -0,21311 -0,05843 0,38902 0,03688 -0,51776 0,39404 -0,96863 -0,69294 -0,77808 -0,73804 -0,34053 0,47548 -0,23919 -0,18586 0,09005 0,89798 0,14822 0,53295 -0,93041 0,06494 -0,63586 0,15782 -0,98551 0,62815 0,67097 -0,00813 0,25082 0,02021 0,3701 0,61005 -0,16194 -0,53336 -0,38661 0,94871 0,45916 0,57438 0,58955 -0,00886 -0,90491 0,28993 0,98887 -0,37949 0,36002 -0,86586 -0,70914 -0,41416 0,93928 0,76878 0,47816 -0,85298 -0,67369 0,70898 0,86298 -0,56475 -0,79755 0,62907 -0,07293 0,76086 0,3659 0,49036 -0,85678 0,01115 -0,06305 -0,38814 0,42389 -0,80718 -0,13792 -0,1879 0,35497 0,51566 -0,69157 -0,84292 0,43786 -0,22034 0,07606 0,74362 0,79779 0,88034 0,33728 0,08513 0,05259 0,48203 0,54205 0,22308 0,28374 0,12908 -0,39634 -0,82186 0,74625 0,83009 -0,35269 0,82868 0,62523 -0,39528 0,1467 -0,02228 0,68356 -0,25185 -0,28975 -0,90196 0,72376 0,12717 -0,5862 0,9625 0,83858 -0,83077 -0,72888 0,08332 0,35919 -0,54117 0,83127 0,04673 -0,57642 -0,71923 -0,56224 -0,33881 0,4691 0,71387 0,32812 -0,70519 0,58916 -0,31606 0,06585 0,52488 -0,13165 -0,52025 -0,46816 -0,16686 0,63295 -0,90166 -0,93994 0,04964 0,17009 0,23924 0,36137 0,92541 0,06822 0,57955 0,38449 0,11451 -0,14205 0,52033 -0,18105 0,28741 0,99882 0,60057 0,40509 0,34446 -0,83305 -0,5145 0,50861 0,96968 0,42003 -0,58457 -0,49113 0,03981 -0,93868 -0,11108 0,09414 0,35882 0,63738 0,43797 0,45036 0,26084 -0,60123 -0,21838 0,87664 0,18433 -0,0806 -0,48765 0,59296 0,88955 -0,67062 -0,78639 0,43685 -0,93117 0,86499 0,77843 0,52605 0,26778 0,07466 0,18738 -0,33382 0,14745 -0,41028 -0,90963 0,62961 -0,24535 -0,26964 -0,67845 0,86409 -0,8207 -0,5146 -0,97434 0,47712 0,41997 -0,93004 0,5581 -0,11136 0,21719 0,72393 -0,77925 -0,57495 0,6546 -0,10747 0,61906 0,6403 0,20642 -0,02143 -0,55996 0,17482 -0,71712 0,36286 0,82636 -0,71584 -0,55 -0,22821 -0,69709 -0,32888 -0,69161 0,15201 0,12198 -0,54604 -0,40216 -0,35175 0,41366 0,40414 -0,69629 -0,26352 -0,98313 0,99886 -0,69311 -0,11021 -0,69115 0,54384 -0,1461 -0,23768 0,01158 -0,74509 -0,02934 -0,54993 -0,57682 0,77607 -0,70968 0,14673 0,5812 -0,18357 -0,34096 0,7415 0,02711 -0,35182 0,76705 -0,11302 -0,41975 -0,93482 -0,39805 0,76678 0,82721 0,00635 0,47887 -0,78509 0,33658 -0,53007 -0,0383 -0,55883 -0,13208 0,39309 0,05401 -0,71749 0,43026 0,68768 0,76021 -0,95201 0,70045 0,85831 -0,27118 0,3459 -0,83636 0,45111 0,06704 -0,40277 -0,25491 -0,43779 0,70937 0,36869 -0,76819 0,4199 -0,69046 -0,75633 -0,05811 0,08711 -0,06489 -0,99477 -0,22396 -0,24426 0,11348 0,95325 -0,18563 0,84914 -0,7212 -0,81189 0,76241 -0,62347 -0,68877 0,33943 -0,11203 0,71905 0,18652 -0,27807 0,33635 0,25604 0,60314 -0,62391 0,9393 -0,11837 0,46981 -0,22563 -0,23945 0,59301 -0,79064 0,44802 0,08354 -0,18967 0,34062 -0,65685 -0,24744 0,75498 0,27195 -0,0553 -0,25518 -0,22443 -0,46847 -0,68551 0,1723 -0,12108 -0,16519 -0,63144 -0,74903 -0,63007 -0,51929 -0,48725 -0,76662 0,5876 -0,09268 0,68584 0,48396 -0,44099 -0,93408 0,8944 0,28593 -0,66089 0,19269 0,22135 0,63978 -0,16922 0,10456 -0,04792 0,0359 0,96808 -0,41314 0,13299 -0,55291 -0,75819 0,97711 -0,43922 -0,27549 0,28864 0,20379 0,06037 -0,95318 0,10124 -0,47661 -0,60938 0,11229 0,6966 0,21463 0,49594 0,90301 0,65478 -0,14082 -0,80645 0,68905 0,37754 0,65877 -0,59429 0,58287 0,31017 -0,32529 -0,65848 0,77436 0,88273 0,33266 -0,71711 0,78306 0,34772 -0,93435 0,99157 0,61049 -0,65347 -0,03867 -0,80468 0,35522 0,00555 0,84758 -0,81532 0,81571 -0,19793 -0,89094 0,94317 0,61615 0,60862 0,04906 0,38112 0,1089 -0,60669 0,44393 0,06955 -0,41697 0,57139 -0,02209 0,41433 -0,38607 -0,13773 0,28601 -0,83591 0,76857 -0,7595 -0,39245 0,76457 0,63095 0,22306 0,88544 0,55648 -0,30655 -0,33615 -0,16168 -0,3165 0,52996 0,47408 -0,41001 -0,21921 0,20111 -0,26846 -0,27463 -0,83427 -0,16634 0,95154 0,17398 0,38974 0,90378 -0,0039 0,40853 -0,96091 0,36862 0,54699 0,58139 -0,50706 0,71954 0,68348 -0,5839 0,57521 -0,80548 -0,65551 -0,68778 -0,60692 0,72317 0,49258 -0,31234 -0,55496 0,55498 -0,23957 0,53958 0,10895 -0,0186 -0,80289 -0,78678 0,88238 -0,8631 0,12027 0,33042 0,81703 0,06651 0,2178 0,86078 -0,36516 0,81453 0,84635 -0,81215 0,14646 0,08246 -0,65462 -0,03604 0,84648 0,05797 0,01478 -0,41373 -0,14339 -0,58068 -0,66772 -0,55744 0,34108 0,26387 -0,27106 0,83476 0,14335 0,45652 -0,70042 0,05769 0,1715 0,33376 0,699 -0,64396 -0,40073 -0,64694 -0,40093 -0,49131 -0,02329 -0,5163 0,67737 -0,42145 0,87682 0,30472 0,5412 0,36257 0,2096 0,79647 0,69309 -0,94903 0,96662 0,61084 0,3566 0,46306 0,80461 -0,3223 0,98934 -0,44685 -0,66243 0,38304 -0,28258 0,17831 0,51495 -0,21134 0,01634 0,81269 0,38346 0,98933 -0,63532 0,49342 -0,5411 -0,49391 0,60955 -0,62709 -0,25806 0,75373 -0,43427 -0,96365 0,72267 0,36637 -0,37485 0,34688 0,76342 -0,7514 0,09107 0,56066 0,97715 -0,76407 -0,44858 0,92156 -0,63628 -0,95408 -0,82888 0,59367 0,76628 -0,50094 0,0636 0,08816 -0,71162 0,7285 0,9791 0,22027 0,43178 -0,80033 0,59207 0,46052 -0,99872 -0,01631 -0,27888 -0,94912 -0,88804 0,95298 -0,16952 -0,0288 -0,24211 0,37054 0,41489 0,26634 0,69758 0,45567 0,83554 0,14753 0,4379 -0,55688 0,12969 -0,58703 -0,66503 -0,98412 -0,39338 -0,75712 -0,30988 0,47757 0,74797 0,99416 0,38726 0,40487 0,91509 0,56374 -0,34347 0,63054 0,55937 -0,00655 0,51481 -0,49946 0,80959 -0,58927 0,21544 0,19991 -0,16423 -0,60427 0,08416 0,79725 0,39057 -0,1673 0,89296 -0,16843 0,78237 -0,01135 0,06997 0,17909 0,12555 0,9854 -0,62293 -0,52176 0,36075 -0,36561 -0,79499 -0,16369 0,58393 0,35301 0,45544 0,85114 -0,39019 -0,93296 0,8963 -0,15791 0,63272 -0,06264 -0,36648 -0,28104 0,19753 0,13505 0,1801 -0,78912 0,15871 -0,10713 -0,913 -0,08474 -0,8988 -0,44432 0,6225 -0,07356 -0,50624 0,47743 -0,49502 0,57397 -0,38362 0,03656 0,13978 0,1752 -0,79428 -0,62088 0,61598 0,48276 -0,05971 0,23302 0,18744 0,32352 -0,0636 0,05086 0,19885 -0,155 -0,64488 -0,64899 0,98156 0,9905 -0,19471 -0,83382 0,31952 -0,53212 -0,45261 0,28974 -0,26489 0,02824 0,73051 -0,471 0,35738 0,13237 0,56205 -0,67768 -0,77429 -0,40385 0,79757 0,45832 -0,48676 -0,1816 0,51906 0,69734 0,27059 0,92569 0,70542 -0,23653 0,97886 0,05033 0,35683 -0,22251 -0,42869 -0,85725 0,49587 -0,48552 -0,23133 -0,5498 0,71704 -0,32811 -0,37219 -0,08403 0,64401 -0,41227 0,75225 -0,58872 0,87564 -0,94494 0,76146 -0,38593 -0,17485 -0,3973 0,04743 -0,1032 0,83777 0,16315 -0,52857 0,10795 -0,10442 0,39383 -0,23755 0,78391 0,31088 0,68478 0,67141 -0,04699 0,95769 0,21462 0,6365 0,04757 0,55365 0,7755 -0,1209 0,12568 -0,16949 0,59727 0,17439 -0,06867 0,94508 -0,14069 -0,94995 0,65036 0,002 0,36478 -0,77483 -0,24588 0,73006 0,6745 -0,69503 -0,66729 -0,95696 0,66072 0,55461 -0,6768 0,90943 -0,15611 0,60508 0,95923 -0,08369 -0,20077 -0,54641 -0,33899 -0,58144 -0,28611 0,06042 0,04964 0,72359 0,92174 -0,93371 -0,7595 0,98875 0,54009 0,16286 -0,96373 0,34378 0,11209 -0,21809 0,94609 0,4596 -0,08272 0,22294 -0,71682 -0,09036 0,30378 0,00452 0,89292 -0,77911 -0,44411 0,21624 0,98661 0,99218 0,21516 -0,98499 0,14584 -0,59429 0,38903 0,23179 -0,7119 -0,69564 0,17552 0,03053 0,80831 0,60821 -0,93553 -0,65604 -0,49706 -0,50215 0,51834 -0,02058 -0,20266 -0,93803 0,65899 -0,50038 0,99903 0,57629 -0,82959 0,75136 0,11478 0,70936 0,16749 -0,17125 0,16769 -0,2945 -0,92033 -0,751737317323275 -0,226411140451798 0,524983108555027 -0,982874712484423 0,630550012222214 0,95499408443733 0,880290000009458 -0,506258497383687 0,641767661653754 -0,715849387630522 0,886741378373397 0,414394159519857 -0,324984914031966 -0,15483000149287 -0,0403873479030243 -0,498420026527985 0,39514214764276 -0,297467956417015 0,576470000084157 -0,581115143954373 0,924639952829936 -0,666821349800878 -0,284467248201109 -0,983998609023823 0,569582254935317 -0,764702701198901 0,637614061716368 -0,882968615168595 -0,421291034371238 0,136865664244475 -0,653240010246646 0,862830038755567 0,102810258591477 0,528583196574659 0,816098082689134 0,570359343521879 -0,0222753452204619 -0,519159999818413 0,887775162999137 0,0246699992085635 -0,0829764017115866 0,568133025605377 -0,982736878026515 -0,784477657109409 -0,887743856906659 -0,838339885286676 0,495443895702265 -0,0939703553748679 -0,845094512246181 0,207831489888538 0,7724189980009 -0,873697107594805 0,591388637970178 -0,713387396675354 -0,845050735905145 0,914904788070079 -0,941841447465632 0,509087868900093 -0,552663618054577 0,395310043634517 -0,682787284497687 0,76327999953331 0,914984186684628 -0,494979913341616 0,937294111810033 -0,976232697721468 -0,688237108620904 0,146418911293239 0,0290088498440937 0,389450966434552 0,523952939957155 -0,0856837257704655 -0,18525233802699 -0,448210004665578 0,501850011697072 -0,643429167023604 -0,68405832078635 -0,500009894058552 0,903714767238442 0,407863973214763 -0,260226132618945 -0,268431632196274 0,962110044665389 0,37095310073791 0,364310471181696 -0,779438246688601 -0,728402220716627 -0,183789987021773 0,373516369883088 0,901020064506295 0,512299984781292 0,468879984495051 -0,966572688210124 -0,507566452120185 -0,292356891025862 0,153803627263109 0,653099766460178 0,512406601222691 -0,721453296309315 -0,91166 0,849842649831252 -0,650987525399525 0,87716843652419 -0,234463622955983 0,684060061982291 -0,141809996330334 0,311430104142902 0,0394199999905188 -0,215449649424626 0,798434845766738 0,599173518408575 0,558118365735409 0,605448389714087 0,039561180443733 -0,344610430345271 0,585520011396369 0,801204398915496 -0,455900000029928 0,140519645276323 0,716739677258699 0,75234303268464 0,495597365661427 0,77298934125938 0,127949209525176 0,877201673373837 -0,945171930578331 -0,119219783607673 -0,677738399879405 0,844200774497809 -0,652005534898091 -0,296586340410805 -0,196400111920024 -0,778249972660884 0,815284628702797 0,558061918699799 -0,609170053236445 -0,145699999946798 0,196549752327477 0,68689000205351 -0,493760051682851 -0,09087995272629 0,232148277295392 -0,968544433034478 0,575073103467971 -0,698200369777897 0,95422845478582 0,86335247174825 -0,0061120524823251 0,837140010938354 0,122008351752749 0,352592389488339 0,109029277422875 -0,628029997769382 -0,438628528718412 -0,663972672845537 -0,645750085953107 -0,423881043044896 -0,25049313923097 -0,111700930860658 0,629120003803893 0,977174654954781 -0,0108796036825013 0,195229980358813 -0,56335997473195 0,095018862724537 -0,204330201831741 0,336310004815535 0,789956716059986 0,481503931504599 -0,73545055557263 -0,268911988783959 -0,395329855629772 -0,142790000034893 -0,365620487026751 -0,192317860846019 -0,4798682877787 0,464135293060527 -0,802050191341164 -0,17402163976633 0,922762904844194 -0,808563159276945 0,887019891051928 -0,514901874174094 -0,277838469030915 -0,00444000025848528 0,594359916849958 -0,568561459859462 0,660063704989814 0,479381205167563 0,203845922134116 0,814620763472728 -0,894873546732284 -0,691879356894872 -0,942094890519418 -0,471104477914407 0,919855645935208 -0,96306000082395 0,594909472733537 -0,520240000010402 0,506084367814607 -0,382079937474296 -0,926655032764683 0,512276473434794 0,572455465998095 -0,609110693183688 -0,251953266702857 -0,74819291832833 0,737800007011368 0,753759535201323 0,815959641449567 -0,110059341012326 -0,621627671663026 0,923028375802047 -0,0344133871334132 0,437582198212611 -0,909680213105352 -0,495887634049049 -0,526894386987995 0,441080016949296 0,500912780541125 -0,635859992276574 0,676417658595079 -0,689310000070324 -0,72227999855512 -0,550152857982837 -0,373829993764589 -0,703529621318195 -0,200805627611348 -0,894714260742388 -0,112300493568416 -0,516741107673737 0,869137476022999 0,718283435022921 0,319878296876677 0,304846402930662 -0,881773570471953 -0,62528975578198 -0,0875830236857514 -0,668424750577392 -0,752220673079504 0,342582688263961 -0,306262791475453 0,906399570289492 0,663494129277311 -0,686212025945286 0,436541187545452 -0,817859737366154 0,34257597776838 -0,379799997813333 -0,561440000945117 0,41508607115031 0,564183952428586 -0,847034877733482 -0,0201713602170716 0,141980038433667 -0,0571000054290601 0,762659998521946 0,233316465726945 0,123443940266232 0,765300714874888 -0,548634667365435 0,451266655089933 0,633339977012913 -0,133850246605838 0,331666617423698 0,0207664176660872 -0,340145638940313 -0,397380323107912 0,660450536395499 0,319310606690225 0,715359692787345 0,59067810153477 -0,858344719580736 0,193733532001311 -0,841611681891888 0,67043460704096 0,768308509250314 -0,352577860244233 0,964464923162903 0,0133140947276182 -0,555921426315374 -0,046289882339199 -0,820759225954459 0,666821662914805 0,47001016678381 -0,0808138609094576 0,71434425880822 -0,260749999443864 -0,824322648098461 -0,636900002324781 -0,644422574712664 0,139946961990328 0,789682699390391 -0,432970211451523 0,795922893437963 0,890240337887916 0,0612312414339263 0,0396540966214635 -0,669427131782102 0,29297523066278 -0,224465473245367 0,579935939464887 0,684043592551841 0,300626372432553 -0,278515934746195 0,82239205712308 0,423263824959601 -0,0396616110562729 -0,179810146497885 0,472139422053824 0,174341682536072 0,115389998629099 0,271017677349725 -0,888989488377346 0,320827651824263 0,496638651413443 0,272893576052164 0,965876478012126 0,39412836140407 -0,586581575313258 0,308443194651366 0,92143897493383 -0,575097565733088 0,29733998624696 -0,0361999761971292 -0,423851703518508 0,802090219776294 0,574771883591915 0,397119231102401 -0,732084723196362 -0,391442057924993 -0,269935051894231 -0,682753368060867 -0,328780895253733 -0,764761864417531 -0,134624812582867 0,271329481381901 -0,12150752389088 -0,0562064381327603 0,647702493741932 0,497049955296794 -0,243862735842252 0,918130712638563 -0,29390698308912 0,190979600162512 0,241134652785171 0,86959877139582 0,680393235404019 0,249158048097628 -0,70137001235312 -0,38388298448985 0,0953980498301169 0,645153316811942 0,917012835540112 0,987560306913696 -0,144159988777858 0,1541246998116 -0,615131841649554 -0,664405255512573 -0,853195090510542 -0,977783117248003 0,848349408845244 0,56366774064629 -0,447276036245271 -0,137622886465313 -0,558035387373687 -0,202306502011399 -0,400690000266435 0,873547246529626 -0,544528830685188 -0,773583640287391 -0,604742712735615 0,0223274300087272 0,746277640805695 -0,0823414234631716 -0,450378996585584 -0,997952504643305 0,718536275843041 -0,894172888414123 0,722959843864001 -0,293998353138879 -0,878069802064609 -0,671605176039397 0,097404736681368 0,651106412228505 0,512257354713116 0,0827847284487781 -0,600730726786045 -0,316359320399096 0,380617712307413 0,71082102068988 -0,114651787975121 -0,459284187952719 -0,204187405317526 0,625487326387018 0,649575247546664 0,189966811587076 0,3673066818622 0,844021741859434 -0,251679287977132 -0,558703670416299 0,270501976429205 0,807620006552315 -0,209503654773732 -0,927666336828772 -0,777573187415612 -0,926643128068864 0,900714477645243 0,00154653871582007 0,437470147388002 -0,147746481697383 0,434683603686722 -0,72258882422085 -0,386441342419713 0,440345297935687 0,900225290935278 0,519060014512677 -0,536634678981444 -0,0981772880620222 0,348594753728606 0,358677060341821 -0,600292925328717 0,915669821201262 -0,506575698779363 -0,254894733028597 0,33930790950074 0,853778953975189 -0,774210569085447 -0,879651557024137 0,265944663427323 0,357580285183888 -0,363692835895425 0,874455103095137 0,358454480667277 0,282322218820328 0,435569749658753 -0,686699092163636 0,536587563151411 0,0263493166559956 0,430045360257199 0,439423953835091 0,183993404334223 0,397903344273369 0,24694296758392 -0,472726764429755 -0,725946111721932 -0,392070002491498 0,92948899626058 0,354619890891604 0,724105244798413 -0,869479812345051 -0,27304447456796 -0,536688363698881 -0,506634591284997 0,389622340166376 -0,956275334233513 0,354870816531404 0,315800020807341 -0,95458217748462 -0,267345864147297 -0,631792059036514 0,849380780296476 0,779057523987535 0,735155232452712 -0,920523101374894 -0,78264062579794 0,561216121247053 -0,0795708325155656 0,33108005219883 -0,993571627706649 0,586990213070177 0,984927293413771 0,438779999793397 0,473443456241772 0,908511098898006 -0,82451211566767 0,00120228379689574 -0,331362884934121 0,964569885591186 -0,530592503427045 -0,267778284876122 0,924703722367153 -0,128365716474295 -0,60330940743861 0,136374740259795 -0,368691750950482 -0,827545986951159 0,377521575817341 0,972246240051506 0,241092920443063 -0,919051230517448 -0,00195786705701432 0,491318196200609 -0,706046237731996 0,0603055400024668 0,592813585436698 0,405789653161513 0,661951768946039 0,166914636519094 -0,691933369909594 -0,25510345838633 0,701160223001306 -0,441330738682061 0,375011655801938 -0,862297533668483 -0,838139371553338 0,288220307490324 -0,112491053078517 -0,402507437316202 0,274170153779956 0,0405871289189649 -0,336220112214377 0,368056018176404 0,576685929553577 -1,05129719148051 -0,557246856071469 -0,00910121509304745 0,367260021097407 -0,400961369852399 0,445870088276795 -1,02325843307704 -0,864578440775463 -0,0528004267677108 -0,903426830182681 0,916478384231758 -0,410985167077469 -0,520738657769362 0,152239089903431 -0,546469303210782 -0,681193649650668 -0,231524920504132 0,337037977320279 0,50259937758553 0,655101740434459 0,640233619165754 0,0368591141491093 0,298019685552293 0,522610375148927 -0,83745172357429 -0,0127299960445146 0,356282403593691 0,144147303898243 -0,193060963151894 -0,234053451972661 -0,813650160390828 0,395852657906828 0,646466528664633 0,900455154035431 -0,707031424085421 -0,37963205995722 -0,444670208281298 -0,9782674116547 0,122600967582852 0,692950996784105 -0,734641656966678 -0,541073795594606 -0,217462893278039 -0,492846609752308 0,412113620191757 0,55935683476924 0,716878502349484 -0,857000202856925 -0,386930374331179 -0,662072998160304 -0,585845641678634 0,672277761041197 0,194902627187921 0,698184470302021 0,789259451563489 -0,0430779031113621 0,230608165674308 0,446663417203407 0,119960108675235 0,61061352697324 -0,894904191604019 -0,134676095431176 0,395876724797557 -0,805785697700171 0,891659054024205 -0,471053476305501 -0,0733643114542213 -0,397912571657221 -0,11177918692546 0,798350493648977 0,653617424974942 -0,21350972363445 -0,736565174668767 0,754671171830666 0,369325201095382 0,224361786567533 -0,693760045020235 -0,139775139179813 -0,887619486700892 -0,29933741394177 0,329941740391328 0,271476944264432 -0,394823592932826 -0,480830224470964 -0,571122625166111 -0,503613366334236 -0,815772933496571 0,94947835192262 -0,974579837883925 0,331145600656064 0,500692641813245 0,162640174916105 -0,100945564666061 0,452402278492634 0,621572429285112 0,390500353881043 0,140125694108502 -0,398432147549466 -0,369446772032111 -0,10405950594111 -0,397160715673557 0,0746361205493828 0,289744810663227 -0,221928829198507 -0,400572982268097 0,694660973520231 0,441171599670376 0,405870073293076 -0,684527554731466 -0,455608784436811 -0,326490712259739 -0,719650288023374 0,399067599319571 -0,593970206423437 -0,694813756839047 -0,127690253291927 -0,741917540803061 -0,0876459653065968 0,879732256110611 0,379339045110355 -0,681875766007225 -0,0693177722444676 -0,545757241442071 0,515851408808924 -0,702405700012445 -0,483424450761876 0,842472504212967 -0,217161410158292 -0,852710554907221 1,03233090733722 -0,88643698248341 0,761723929106739 -0,878489406687301 0,24168379992152 -0,901872638909504 -0,763445690656435 0,895431207695296 0,813762295117733 0,947840004840024 -0,431850454198899 0,062388545698885 -0,185905559969843 0,643676779074114 0,548219338884734 -0,345895999335589 0,207990003445909 0,695726877562977 -0,525818200306882 0,145092156472418 -0,284639136648448 0,0866847650537121 -0,7337297643403 -0,335369642528871 0,222299311672873 -0,421672222138248 0,610710699847032 -0,393276604532722 0,782346038433582 -0,520330776041841 -0,906376543581215 0,948081609339115 -0,378587247120097 0,238740764089954 -0,681929666639514 -0,475578761384575 -0,126308576108534 -0,934391282596396 -0,85111248219108 -0,691723963999529 -0,963640257157939 -0,00538855101330893 -0,569059483691145 -0,089680037926718 0,237293010234478 -0,676507597834888 0,551435919043327 0,369037156848604 -0,0162482598393771 -0,20704963434075 0,14310296745586 -0,271354927942435 0,324796200903675 0,64144511016297 0,509504307215851 -0,155057906064106 0,791381369683483 0,0971541423552565 -0,016871566877749 -0,387881816978463 -0,558631875007693 0,695862925460032 -0,809226459005361 0,369418726071512 0,911700103088002 -0,256650525865794 -0,553579390145967 0,539732385149322 0,382724765662937 0,0258211181787059 0,866912553441274 0,134616254032449 0,658369850907734 -0,816579888409577 0,14035306667148 0,712630093621126 -0,257720248437626 0,35008707593215 0,500768781223101 -0,109100002076252 0,0801915025961619 -0,725469423901671 0,615266439004566 -0,0546403077412501 0,360556054630442 0,311248416488361 -0,500823938057527 -0,0237084155088103 0,747014415452919 0,48217078342401 -0,294031327508639 0,789921967178513 0,0959510390987101 0,533607753381766 0,799735574512489 -0,577060911723114 -0,13028545696618 0,0847862769885794 0,0101899761098125 -0,497150506803435 0,889195723677531 0,936784748583926 -0,977668500375032 -0,998609980225591 0,016171684694325 0,968663810440906 -0,0165098134670888 0,163683705070201 -0,484480361891109 0,727445956515253 -0,846098572811174 -0,53948223951689 0,709250369373336 -0,906586253646154 0,49821401003068 -0,764108235100339 -0,921565880114967 0,190200323764242 0,936105548404674 -0,374792461421423 -0,740372184579907 0,449324837392557 0,816220786134783 0,855716902903668 -0,744960756819811 -0,992203856486385 -0,98426155533006 -0,941860100788485 -0,667110392695138 -0,257777970430512 -0,141961803967965 0,624703151847475 -0,654951586525246 -0,122262676507241 0,00888018998727241 0,186880946819411 -0,751248046174744 0,607221650084855 0,912777327145274 0,425282520909098 -0,762174830567206 0,271773709041346 -0,538663009290919 -1,01283853542678 0,337869777587525 -0,829816259114128 -0,906424628205069 0,00907648688502743 0,965362540448234 0,606009021348994 -0,622495047843446 0,647295207767317 0,127996356923546 -0,595969500636433 -0,7609222120795 -0,583619341293312 -0,900792411829119 -0,863252351962662 0,741335529534459 0,0694426369250387 0,928857727592011 -0,0931900378066796 -0,242216087226535 0,783461825229869 -0,100731922154039 -0,505482972699012 -0,867252129236815 -0,150585264844795 0,0881367412256516 -0,590407838776153 1,02322431318134 -0,582795897469553 0,259219384247718 -0,455337073145617 -0,630622535015787 -0,116667242095879 -0,00127789240427562 0,879324975477184 -0,47781237859953 -0,973595068202291 0,911303924001783 0,0131809042604859 -0,831476361354117 -0,22424094269025 -0,618512474942817 0,179718239806853 -0,501263896600024 0,909825909780653 -0,314263288994031 -0,384806182546748 0,0658369275015465 -0,953217441745829 0,918066645414822 -0,120165754411593 0,467672170990333 0,304312618105324 -0,469626450869531 -0,288750101867642 0,143623632412528 -0,149845437178648 -0,885753558558946 0,29728583422281 0,960298486489664 0,586008065411462 0,617706376441547 1,00739745710393 -0,604010178506903 -0,436380043111209 -0,961685497976889 0,244694974152478 0,409404575039028 -0,704524112482436 0,65576844003177 0,693647684613367 0,108643516958336 -0,0843473501807212 -0,241638537585244 -0,972212242208836 0,410816505595874 0,722386464637247 -0,985380267534199 -0,818640742588633 -0,869424496792902 -0,525972021344473 0,32148492369632 0,922882652222818 -0,467796428476233 -0,601164414827963 0,0666382475430385 0,0776185088650607 -0,69309086125094 -0,684148330458855 -0,340927144417059 0,699262322417808 0,898370755587337 -0,389348612818668 0,0793558277101263 -0,424003915469501 0,185012470981702 -0,56379509799178 -0,23809240955598 0,907325218561566 0,852263751865803 0,312173293402355 0,170592153920549 -0,229630659626119 -0,611941009681546 -0,821588996249355 0,733847405330661 -0,486652535426741 -0,46609052108267 -0,494788000233324 0,33152966533211 0,344079520384885 -0,142051023390556 0,927009975145426 0,15264232362807 0,417900962214219 -0,727804482270443 0,719108527412834 0,376717734861404 -0,996988591233039 0,537388561586157 -0,0235519250375584 -0,0593960144211686 0,133851323997997 0,615508386284191 0,908666720382082 0,773000586327635 -0,531682353532094 0,845700450196122 -0,832323209754587 -0,134550836446788 -0,0577627776535089 -0,0852156212174848 -0,89919315668714 -0,715692911824275 -0,192575587985874 0,331317586691687 -0,449905231399629 0,520111968308532 -0,557456113261249 -0,380102194999164 -0,474245129185544 -0,469285833455516 0,903626280232062 -0,0625820947793882 0,265113149177552 -0,160590288973317 0,961062624374646 0,464406906254671 0,671218667148242 -0,68940518143857 0,422379317865037 -0,00961415823454679 -0,221402556674087 -0,590526716253698 -0,0905732599337753 -0,58478000760834 -0,971739854218971 0,176840640529018 -0,554646580171573 -0,627761012653971 0,272572843883699 -0,257951381827297 -0,667379463783679 0,60572139356984 -0,611371851803374 -0,538962351190484 -0,292143711928319 0,604137209518236 -0,627092128343547 -0,867675308032425 0,725517672351205 -0,762749831258052 0,0302267464820627 0,388759599709754 -0,0129173543396979 -0,517822606361394 0,0380296225620269 -0,790380106817337 -0,654619625365244 0,131446245431093 0,825122670446715 0,0393384611650848 -0,832871765055603 0,89978500278551 0,445068911160456 0,974049759080516 -0,839851659852014 0,739288438891667 0,378653534928711 -0,615261095098409 0,285471932263899 0,383764562886556 0,0394065878633931 0,962818076260041 0,347929808541737 0,795309040111001 -0,788782412591094 -0,703459273377104 -0,427297905382272 -0,188201515411392 -0,86785628753057 -0,708400020712918 0,155883706355549 0,587307031658103 -0,401337454484117 0,198090863302577 0,982841350495874 0,39837932249872 0,367832214192422 -0,526132826138417 0,409771275558828 0,830970191934602 -0,180148302570056 0,18475755256172 -0,472398706115033 -0,761941229278092 -0,486549064476251 -0,523732029086295 -0,829466717496901 -0,497712607912696 -0,718420452012873 -0,126120723261623 -0,718610047224186 1,00140046710547 -0,198307052258162 -0,729098288086585 0,22767316054668 0,0804093399174489 -0,977576259636234 0,197284497976978 -0,728301243090325 -0,299071786505598 0,603855064575423 0,480003143193924 -0,141222516588438 0,468353174048012 0,909939360636853 -0,399458906764151 0,291750072123254 -0,744650871235349 0,924501941416324 -0,227531721953181 -0,594974399070307 -0,0850276498193277 -0,0469841217257629 0,42287987178794 -0,372769816639685 0,713485401826318 0,389186779590035 0,0902275629222387 0,249423131687044 0,741724603251606 -0,967187096188098 -0,936285107437838 -0,509528304712968 0,15084496246838 -0,923232237290235 0,177312790908965 -0,263558096143925 -0,734783920754592 1,00233591671204 -0,103351527534047 0,36705497436298 -0,867063651741956 -0,823895968083835 -0,283248496258554 -0,714722569910586 0,287671695540434 -0,736107484583779 0,0167183531283023 -0,662640726646382 0,935425008121022 0,158567987600206 0,933372959588451 -0,414394177170393 0,533251537089513 -0,41263877050138 0,427251645309761 -0,0321671155225461 0,369805694078343 0,76748494704923 0,426014605246927 0,629525252352537 -0,0623073062573696 0,960512691465918 -0,464170283151676 -0,412182311578119 0,520969228818378 0,00256273731181102 0,912519350997428 0,459472733739307 -0,242070227869144 0,825084237595104 0,0113913598901418 -0,774335859942275 0,0396701799148506 0,447472237394033 -0,75824785795665 -0,345649917505317 -0,663626404441681 0,16687929891081 0,25772410192036 0,446692281039936 -0,636618750555479 -0,216761410111938 0,35981142322485 -0,385431811925521 -0,819277288677805 0,545599018848565 0,054693339013134 -0,489981726111024 -0,293573097956538 -0,791148031990248 0,384174162478673 -0,512538434300827 -0,454853340905575 0,147748180840669 -0,577026405459958 -0,772762764699764 0,73908580043953 -0,906040538915705 -0,284659409261659 -0,714572674484661 -0,620217400502866 0,589504411018726 0,592629280520248 -0,878833831145763 -0,839397414443703 0,676741249919276 0,505642829150351 -0,928362719070074 -0,632246260775387 -0,283106201349268 -0,327772644614702 -0,772136728206952 -0,516616812663738 -0,963858659620685 0,332332906165654 -0,822779047904335 -0,528359118512259 0,899078404769305 -0,601708971160287 0,994944976915141 -0,976492899777374 0,380538042943063 -0,199453618902634 -0,423277573513117 -0,589979667256809 -0,534967977942864 0,659926594239701 0,780263726137397 -0,0228799006019229 -0,978303578643459 -0,121137564421397 -0,817165819140607 -0,587466349117038 -0,0237940146751014 0,0700877642047781 -0,302650125327762 0,216764124150644 0,173487423369089 -0,563970011856286 -0,480333348363216 -0,986179640504137 -0,126789509125545 -0,861137612343725 1,03974352304728 0,418758431620469 0,113308006234023 -0,888970476129478 -0,5178913056277 0,963431284374101 -0,750411505328167 0,643857648394391 0,821317706735583 0,636003096722203 -0,272294777260236 -0,735912823274526 -0,00102785062126297 -0,165641716666647 -0,0297950433740101 0,705934427105574 0,687404622173822 0,950770316408976 0,695547920064475 0,10564935506349 -0,635660004588575 0,807376277910739 -0,523127823239726 0,790349160304371 0,485859007821466 0,000801721920093418 -0,365828492924558 -0,0823527934565426 0,325021881875518 0,44001185969992 0,896457397030141 0,957515428101054 0,164505517701581 0,233740278984864 -0,252493799758464 0,0471284960482324 0,270383585936746 -0,597020787845663 0,210992279470031 0,88840721818168 -0,250846440587599 -0,597711074032414 0,102114488354675 -0,441043789059763 0,700369808262202 -0,248754395295853 -0,989464559781258 0,864151637556028 -0,778595141723923 0,485825183116456 -0,252799780204128 -0,458362172392812 -0,67016478980027 0,781139326570013 0,810976203749719 -0,755889902956497 -0,00778090605893116 0,396904789736264 -0,441576812941892 0,492828152824475 0,305031895645728 0,357523771582659 -0,734140767642044 -0,608431763985435 0,769944849287512 -0,193940504910861 0,0921665090666014 0,790511271341058 -0,900523482532259 0,93625023236326 -0,575129922262558 0,3012514487445 -0,302642812312763 0,826707057125056 -0,642270640897751 0,92386364573164 -0,328829194384941 0,90982491174679 -0,910250060207905 -0,294029711131235 0,0117598767899343 -0,279675975934494 -0,297603808019701 0,838277854860035 -0,